3.415206561228568*0.38659324951585705*0.587620384062199*1.4481271008569794*-2.85133814644997*-0.5001640265392642*-1.628804420782519*-0.2745183712304995*0.19413103666946288*1.0211881852666669*1.2237262341358528*0.9446874274818222*1.5385636449523776*0.4260556992373012*-2.041066690854541*-&30397404382747153*-0.3425667262888823*-1.8898458886195175*-3.8318985965439447*-0.8220635163909128*0.3616106983965231*-2.408843841156648*-1.908818701535771*1.7912493117112642*3.8200087868184536*-1.4168793041157257*-0.38129155351054395*-2.462984499873679*-2.636829807949979*-0.2257500005930216*2.595530733618842*-2.258489360619677*-1.358571792812493*-1.9814809544778467*-1.2708738357218632*2.1541780468159764*1.1417152141449074*1.798376387188053*1.199953854687094*2.3899869183115845*-0.4069564261195365*2.1517906799414703*-1.0206443167059762*-&0247838530778036*-1.3184146950518059*1.2596194011393957*1.086520884707169*1.7277614177188676*-1.4981850422121181*1.4720416223896302*3.5190879571626152*1.957284900173037*1.1172251987983217*&3542786442570015*-0.2431480794786102*0.9312596768138646*1.0669624363069017*-0.42163276745744166*-0.7036336632592062*-0.7990471550439604*1.2455564378355033*1.4315541405537333*2.4756523973456326*0.12103279772047669*2.4011668809555218*1.455440825326401*1.029259115260279*0.9645649338993992*0.9938657691613193*0.7067510048778944*0.8098927867745953*0.4633084868005915*1.5611038227745389*1.1809894768583051*1.4543498257512293*0.40203491027825944*0.5074933439325244*-&8252423297223747*3.714626292050045*2.250110972794674*0.21622427125495655*2.4993986539963604*3.925384084258073*0.5788179677496748*0.18096478502454966*1.0900955248551754*0.7299372383750623*0.667037053756417*2.449463843823824*0.3633688284422552*3.4692683760687753*3.292664023852965*0.9667987766976102*0.3942275698754648*0.670538202053887*2.781147460627372*0.44153924343999235*0.9947658011118135*-3.820049050636008*0.6750287983251202*-0.31998139453195346*0.2570735441022321*0.46739739808355435*
