9.246085448887406,141.65660650509565,-92.49815582197643,55.32913516053852,76.3249195988972,134.4154547428503,46.57053652716278,-88.1790539994271,-23.169870291965857,46.27295857561804,-59.31384783873381,53.646831290791155,-116.58673097698424,77.02693997575706,-143.3665618922421,-49.659645763198846,38.16745874311484,-37.921482664227625,46.104153469550845,206.7434673167846,28.05980478438342,-0.7460277634303191,-128.7427657342831,122.54987606368191,-154.36708803238892,72.58862723845985,72.83620867818583,85.08141790794029,73.01018260149198,76.1116931044655,-50.468193816331706,-4.368100736962032,34.739464543258464,107.20910899355069,125.93023591671444,43.71806246617515,9.632963987888946,176.63079228891465,-68.98215219435001,78.93297776771807,155.54464805510406,-14.171523350855953,-66.44956258101995,-49.67421924648299,103.58450730914088,93.13248570425756,24.731508953776174,21.570563040204213,3.2825648861493257,5.397836301389044,56.53667800472913,62.132786393765855,-1.7167913181468926,-71.58792193909196,193.20757842889628,12.821564293416799,-115.39070197312199,-18.83653455050646,58.8404168114969,49.241499616235764,-36.61241658096185,169.4757595019229,-6.18155591777389,-52.49476040807532,-20.193942073647012,21.30092229862119,-2.1469810644778837,0.6709069129395008,14.234790143527153,32.43563573416188,-0.7395801814475994,30.223419283389237,127.2420974412791,58.05145900644284,72.89554515012998,-26.977654111849088,5.881613963413732,163.7165487305562,32.63276131642809,30.813306440267453,-123.32485001802452,139.69179084645128,-21.051358832076996,64.39709324601395,252.54745357998218,54.66703567219546,44.57627135784647,-82.07220007749706,135.39441743886653,1.5277748975796603,52.96113787870236,111.96492943370173,164.3212293124175,-4.3147372429115824,-11.128767255399428,-20.149317136665182,-215.04514920102272,55.007713689418594,-86.02761789974411,-118.3417660556264,135.59761938149956,73.6805563763476,-68.77245977759367,122.12050262441468,116.01437158342479,-43.625431700678185,-91.71617616817383,161.80830108348857,-21.574619094220186,-196.76695950704405,108.01065260189563,26.678167407957286,3.214728001523886,-81.85403177588714,-9.864443779750804,-67.94491924277263,-32.630161580287655,243.03299903272764,-54.257212092092814,-69.68979694162596,-11&5499507829674,-113.63472429372736,97.84760508721747,29.768149673367947,-18.958331490843655,-134.88612204846024,12.099941562210383,-74.20219517830073,62.51844594970457,-95.13314126556065,160.70483575676036,-94.46819902252345,-9.129491179688799,-36.434440944460974,65.96849094748003,198.4342903595185,-31.523272140347775,-25.74552142374452,-57.91775593923387,-131.1968512695545,-63.466569902892374,-47.463752504582274,-19.287381108560446,-51.884142651642094,78.19357732954767,153.8388911635323,37.108068284645455,92.27427165915971,200.90152237906833,46.077002435184674,-6.266669984755864,35.22112682529396,85.89081085406028,-159.45873666630217,177.25321419454067,45.445109290971345,-59.30870604138128,-113.6861999094425,17.368113875989515,-147.26833411234938,7.896670387816077,1630.567404999612,-12.823070166177816,98.6759319871527,-198.58681078098394,-4.884903363628916,-41.29876205369551,-377.8828012729018,2.0585114173400405,83.77807865810772,-71.58688261042093,-49.696534407478026,11.139345000952959,40.60797483252915,-4.533293111040606,-54.80969532728273,-43.95308428203907,1.9419538516899366,-81.9233875312261,-6.443295626343406,-227.68637253971423,91.54422315448979,-15.370115729211419,-28.491347570954375,89.98973011551136,44.872320595944096,-44.79530935399349,-20.707720130502462,156.26638959144347,41.091249375738734,96.52587142610764,56.874256541388824,-16.83852510299049,-6.446705028714232,5.067591224162236,104.41364099062048,29.079238618613775,-36.83535861654926,68.40429102978277,-10.57030993114946,-32.57132149110228,79.72970902392125,-138.3523790802088,140.68588974671945,153.4217418194219,35.15294599738085,-229.11004126738334,28.209659260375755,-123.43199625587589,45.430336586604746,-117.39946815768948,1.9644615067575797,107.93754912557,20.217413408803516,-147.51015229404408,0.9788749035840989,-1.517039954013236,-20.36218213299428,-143.4458142147124,35.3299166715526,-12.696279109845168,-73.86395262496903,-42.229480142141156,23.86834759724451,-98.75096279059402,28.01413614463922,41.947476312593764,85.0569422955897,61.311477167959765,108.56802874077552,-114.0277396137027,-18.517315062676023,-9.472594629450374,-14.716943774642244,96.7580766978284,-40.87495288205916,-11.95165357205707,78.64277361087412,-39.34761336648719,13.352526577721422,-118.33296197108533,-135.04270854167208,-10.258933238070677,-65.54361768065637,27.64436566893267,-8.590902117000656,99.44884858273521,-64.50220428037755,-85.54951494589969,1.2552694757037341,34.269394337403256,-11.20161321884639,-0.43686740952933867,-189.5066861712531,73.284988239008,44.22808827133951,110.57184283789054,59.026429853961844,-79.68067398874098,19.346489363496705,-32.94001330319521,18.133843985693993,72.58142952813076,-2.4876719227655624,17.7892758745676,-78.81696239019001,40.382646383697725,46.35240528820344,-63.61440677803111,-47.13870365944806,-163.35663995623827,0.22137884391304402,-0.25649883065351803,165.9224489467046,-39.306170786523126,-66.10967515811235,-151.6855109535095,10.907719875484933,8.768067031709256,8.50124897010246,-162.65329600728575,5.877503724765583,16.54929010021334,1.049252582178965,20.867663479011988,18.53192492180422,-159.68654740137012,-49.56436442087199,-3.898484330244498,11.93204643169066,53.51325151399396,-118.9526213654185,77.99475584982122,15.123385551111008,125.22139262699584,-18.2862619707946,23.226311230802036,42.75785562956181,98.69961514917578,93.8117165514101,-5&5253221909292,-13.2213750269934,-64.12916939778877,191.8235457188946,56.06321420482296,154.3928220687175,51.740715771044485,-4.94910543917457,126.05787799019721,36.42628238931664,63.230446179040804,6.857998221967674,-145.21465089031136,5.741425694254661,-154.02786198059812,-36.989677194395114,-43.75960519158183,92.01141230482372,-58.71393512296302,55.71267621395373,96.78736038543967,12.850999817647564,-87.84028275213505,-162.16168432915106,29.493091453211765,151.35824154317677,156.7704620970313,71.63819154656608,-21.27882054630478,6.519875275321049,66.98576375703881,15.942850784794054,-87.78958199235512,39.67110164630227,-50.936442952005976,-36.29196925382164,-46.238173842207715,-26.142836421510456,127.03696954641988,-35.52532208320666,5.575604693898674,-34.697191825544266,-19.620032582368548,42.38117215721766,32.26021672881043,-33.406245379179005,5.856833765672638,-10.4931459926703,10.129145641131451,-108.59674604669173,-152.06704707274676,-1.0708613756758767,27.926959305950348,-10.321619689181672,-268.9705421319517,78.10087156219234,46.34619038353083,-275.24666271925184,-21.43802819413583,-64.3049405099749,21.378741147979643,-56.38799464484989,38.494494036400624,10.165180646546752,153.2736368247269,46.385812650738835,-23.331870143378673,89.73391540476142,-11.774714398108555,-43.77648583995637,76.04346032214588,-55.09529557771791,52.5975640778876,188.62553310121453,-76.07479936160993,61.15831158565333,56.889334471459755,-311.5989942690075,-213.13495618165314,-3.134607532626498,147.96194033315814,141.5700318049457,-120.61647952375965,-129.61669251536046,-1.0521883167972548,248.05160004643204,-3.1586038326541552,122.86471386552621,-60.26011728129736,70.39616933778298,33.50201802266675,59.35829810084084,25.447781939729627,-59.378470484461914,-156.95993381658056,-61.862029988339806,-96.69864160381101,-25.564145048105303,-265.6967921243089,89.14089038156762,-33.37430373273139,-4.740347088730077,-140.89066373293792,86.4944526851239,7.697456101646111,71.95300552594252,-61.909635238689916,15.503905023674077,6.242296768458533,-161.2507521184179,-141.37597789588094,178.38162208026597,-73.3850073994266,15.030889056445508,-83.72182364666361,33.675365824504794,-5.0343745965751365,-70.27933615894419,-100.83474371059961,-46.770038571907506,6.896062366596712,29.923409809855006,-34.97330138630071,-192.39758029641655,58.686734839946794,43.73634355413855,-186.48530870888706,-134.74323884910999,69.816702154153,110.61156226514292,10.228397374017323,20.52480207140372,50.4353325856621,45.92457127161634,29.166721572405848,-118.60864568994901,1.6820104600882522,-43.62278704636344,-63.375156507123165,-156.68307622983036,-189.61085760804318,55.07841936699073,171.52656536521698,-14.790249919589728,-74.03055724542821,129.57564445399592,107.88141274619106,-50.85259829062316,-40.47751017337845,-16.963755055608303,-66.51254218654884,-58.78599935314581,4.518415525960677,219.73670714425594,307.8840262779622,243.73774713070614,-4.081410416053189,58.47308031200044,-32.08473621159196,-25.98634445349758,-21.804078770117687,-33.79721529844264,-18.93307293359651,-35.02496639208634,44.89226084928441,80.71590831581732,301.2785834064972,-3.2563332120327995,-25.156973690260617,25.888549099989643,-190.31451932068333,99.71438976491784,56.37877130407355,15.483093992078075,5.048003433014261,-44.10937097969026,-65.81562356344432,-48.021271450752636,-138.8997108529712,-6&7832827277731,-77.27639781376133,-66.71821156162976,44.00371522370755,62.0021009088226,12.336103255999708,127.27908408731871,-53.39041086395368,-74.18824295376665,34.542128842465864,-1.0486128853960033,-7.0198483852837255,35.568717218139504,62.596719662074925,-13.4490249456986,-3.6311378680959905,-65.2818472436315,181.9538166409568,41.56777927169605,29.826440702160014,-43.19415053089406,-62.19905931710626,-83.07180252732796,281.61345180588216,146.0013079058136,69.7927405844729,6.348133604893905,155.75289716803388,-98.14206985226424,52.25851655385042,-7.6369300949618015,87.96511322856641,110.61684763282187*-4.390870341744595,206.9212070078978,-132.61727475379774,42.781953816925075,126.25377459138976,132.80271200806095,49.580156977728656,-463.0351069649692,-21.18541333873392,24.357393139593974,-60.453284774176815,32.51999128778669,-124.51367779841735,69.08484419724493,-228.66991357067022,-44.86013471608559,37.999830884224366,-50.60300215956395,55.26956029130852,228.41769882992384,30.996294568667555,-21.424012857200996,-191.69218615336533,75.89521334781311,-188.0833534278686,75.53594028791088,103.09871077037306,152.5583383882379,99.9016425207321,211.53465363870686,-44.09142393337416,0.6325014865126298,-2.8866793442817325,78.5938553384661,117.65600507996702,51.38334182158823,9.096040264161534,255.1268891435421,-52.47095578304274,90.65595415314735,202.7202203327126,-62.51237711955975,-56.10202362414045,-53.96361127185185,135.70714055361415,137.2331621588926,123.14635784140727,98.74685351006028,17.779461936180283,6.591393595355372,66.11878208714286,70.9670712462925,11.71271065706687,-72.59501781411257,162.06154598300492,24.371033470343427,-169.4542682943268,-29.72341963550607,94.89267834282104,104.31292802192043,-0.3472970669167144,144.58853560760727,-1.2679141807671204,-52.215139145883086,-8.367195454756558,30.103100936627644,11.762760723370203,2.3932262062849397,19.229356494036146,82.15639494208729,6.736280035002422,39.704059046683525,131.97937092387446,56.516673379944486,18.048590807873364,-28.026808174163442,-&35617571495276716,157.84135079994712,8.107631151693944,61.43235032817734,-109.7706939426561,46.649125748637786,-29.745177607749383,93.34598688486504,176.33187879388066,3.7248602077833195,48.563191766606714,-62.18209285943271,88.5437602055614,10.566340547503515,86.88620317262522,143.84940343250912,141.91774620056754,-9.025618993701642,-2.855419612623172,-20.14150247721629,-14&2941976572737,18.62756058859861,-71.70527488175415,-92.80276234012264,142.58040733624614,181.05294047151548,-134.68581256183322,137.56747277156512,196.36668992626576,-47.830308293182966,-88.5652015537504,170.5094940430678,-8.317450390331212,-193.54745846656837,118.32583808178097,23.19666614739181,51.47997521581045,-119.20536959859382,8.326915317765904,-81.75832639358846,-77.12639491695677,316.3200474546788,-69.3984006077228,-153.8691573339649,-102.79220936450947,-138.88296584580795,107.35554297466503,-5.63884588492625,-31.72770344658685,-152.98980744328034,5.1004050033197235,-76.29373337843803,117.36394033642684,-78.06284465119069,136.88918767339618,-121.5738609722043,-20.362491230837563,-37.71816883878094,48.96369586964,612.7541268714982,-59.5407770443807,-22.52355855852967,-48.321653092571324,-151.6608192844643,-39.22611214069209,-63.712839877413785,-2.2336472243675356,-95.89600056652618,107.23872029691127,188.14532182765666,54.82766257136665,96.66574299741318,15&8146459353006,78.13172657912881,40.7841153175969,39.65198526499536,171.44309430274572,-187.36650285082888,131.92004862681844,51.496493487450124,-34.580664273203155,-80.18508202744063,30.394851713073926,-115.66565922343604,-21.108259845223884,1331.6312035569038,3.6157230725306593,73.2236898947941,-274.14975469092474,-10.986685150067093,-16.84395087820384,-574.2450745883161,46.51922326146749,94.95322361603615,-216.39094471408671,-57.9406839594479,1.4499284245614752,65.9423702969185,16.227749772229334,-59.38161136035333,-52.04212636500656,-0.772971655223624,-34.41556875428648,-28.803110739397226,-203.25656073731966,54.6795672597694,-38.74435657981606,-31.871767476577073,75.56593653239223,68.71274856603723,-54.65981286732616,-71.83545224391108,125.49015301341718,42.08580965361948,112.57744914505815,45.52514076857146,-5.726453623966399,-27.13410014137365,-4.623690147087505,82.15878875660589,30.47646789204053,-122.85373252259801,84.69254165835338,-45.609889354933266,-76.62257094550273,150.62881637536745,-164.9968066284797,238.13996402813865,182.10696220370681,25.931905071394375,-289.1794374366162,36.41569377047246,-156.1814219802106,136.56043561535375,-182.65675663333215,-22.18180847794718,83.23319198725902,-2.564011842364223,-157.84260347014987,-18.029325859943754,-10.141268786708793,-11.790318595441624,-170.4430663153772,15.179927361017182,-4.421256471842782,-73.25818880496274,-61.49291571625537,27.13710812511497,-101.33787596402446,-54.254235859320254,99.86063914590015,115.74084720234815,64.57950507026639,82.51950578496566,-146.19337951778414,13.252557283355733,-1&34147609441632,-20.154534659664154,148.0918913835346,-70.35827965707291,10.234288421309255,40.82971061599829,-108.49844255007609,16.766669519049106,-206.1051729294992,-175.1902036120514,-3.0215838090568923,-110.62058144881102,0.38362141730511357,-1.7095705906719068,101.32317584503257,-68.71059443106849,-132.97394757018756,-17.311732081377972,56.96290906696645,-5.2909622745058975,18.13316000802385,-179.80685642082716,59.793989608202956,48.2337797076496,107.11234174110163,79.88414938537802,-84.0951714172967,23.549181644124303,5.753466335591723,13.796686326462625,160.7826411347547,-22.906577574832127,6.053648795439108,-50.66379372203859,71.26487309144044,50.96280158221676,-83.2435904539119,-51.46641250146204,-161.40475939093002,-1.1345890421586187,6.870687684620557,159.4283479704929,-18.994186557814665,-62.58374705449633,-139.95038521429905,26.572286983841135,-96.40287006666922,-46.1754299195246,-199.53004485538733,11.452931931525594,12.95769115631507,-21.26658368670994,19.36015440800537,41.2229653816898,-148.98892507838093,-87.91218725371206,-58.00989088301058,18.486320437456232,-33.907548885794704,-191.26081594419915,167.12071663900022,0.8335286871333378,151.17035861663533,-29.417790106354662,27.024161494896106,103.11713425943081,191.37322940871542,63.17534323361836,-49.494442115500895,-12.82209219487829,-92.26653295424333,317.2600415174378,58.19077241766825,126.41884967019749,52.76187361368062,-5.356191438716343,120.43676480785578,32.76800806854076,71.97198312244547,-6.629598353037369,-114.67864346283291,104.37670041386174,-175.45105414103875,-45.911348646171284,-26.22602267474323,71.23813697828307,-27.195208320025802,74.41531475113658,85.78756452243805,29.967059335991642,-56.25871893413594,-135.51336112570803,24.40180357834636,142.46776437043326,145.13108531543824,37.734277508146356,2&0540251815287,-5.204820259035045,72.46866967542904,-48.103346590404726,-94.01244038820619,7.468785804384164,-175.48127549832842,-38.136830918991656,-24.121847324874864,-44.44021856281205,174.68308135243484,-4&98124743638984,48.69191565970909,-77.46667589518795,-56.28463731611869,91.23938509500113,53.980687559491614,-31.594674100247552,11.33569580445476,-7.019011666025188,12.907460345371662,-78.67930733045641,-163.14524676986005,23.089542904886063,15.372629798807745,-20.476803994914885,-246.72533897586183,123.82278521237316,30.878875865366666,-254.8931605895203,-19.21309837982004,-77.76124460202838,53.999681146416556,-36.114520493762925,58.011913007949666,1.6925325694341655,162.54831505783383,46.247047322540254,-19.125130932277877,88.86106175585347,-26.01941341898015,-47.06448295632203,57.23536357863209,-30.239758835245,74.37275988137907,224.11258829089005,-115.7445471212471,-13.281833664473721,58.405846560683905,-176.13131350066078,-194.64880547326973,-15.106934706517801,174.8024069294223,119.73082527195764,-133.07588315313737,-156.7207057601768,-6.096393082795971,198.78789135044653,-1.318692485788988,208.30509912590426,-98.72395568213066,126.97363136658207,85.98845530317068,75.15984044137821,71.54615418791454,-84.60168222402457,-179.2697257481948,-88.00373087476852,-76.832717703964,-72.54136895943417,-353.8319527469294,187.02123153368547,12.289517993776222,5.899285922202216,-191.300717905318,84.57192717041484,17.83849686618924,70.49253411389478,-81.81185218653498,23.500761958201036,7.834488896518082,-181.46872900569872,-149.9260628853723,116.31487037922837,-70.28127138294576,16.10274900043073,-78.73945885319085,35.98085682424484,9.053077089192907,-109.79552953515694,-52.70914780292881,-128.87511865512565,5.6558644867499,37.87107094913545,-31.7742305051309,-191.72453914101473,93.07499656845933,37.730142202163364,-118.0425160264208,-161.23300035935577,62.1658432597931,148.40015919434873,5.810476663669285,23.406384494155308,55.455442541051816,73.94847628296857,52.19396523841965,-160.27184639682426,13.540613100475094,-50.73350178473534,-59.174359526259714,-154.46830321933876,-189.5246385085365,33.59521794699262,296.82798270023534,-24.336290797632955,-80.97810554116809,95.47766323489189,159.16125812061316,-3.981227770904862,-69.48890887254495,-18.56040495813307,-62.16230566010261,-111.45903196295497,0.49757047055084597,200.80914637625466,657.184985202701,303.4622543242993,-24.415057926097592,-1.345749109138227,-44.160272072733115,-25.112915576968774,-12.265587158080006,-29.495728445492382,-8.448890014092125,18.33145998865881,14.172359609157793,56.88179926627578,277.33572497150516,-31.02840183927862,-37.17669520019162,28.819331695865642,-203.59240117602062,93.41094412089683,46.79074653159192,62.00961195449116,31.52964927416455,-42.298014995426,-71.74264008024366,-88.33445782983613,-178.3512242666048,-84.31377021564197,-52.46521574772319,-62.13159273931742,47.5119686422665,38.853788066622435,11.45608040592006,94.6604439741545,-75.891632595679,-55.869151099076376,49.366889360507685,-17.06170808214025,1.7433113236297033,45.22426132402907,48.203492764129756,-17.629125909248064,11.380525103399025,-143.8342432624348,174.745335363662,60.9767775926007,48.92602635369035,-40.59084324452472,-5.38514011879302,-84.00154683603314,413.3794900218035,16&9830394970345,72.92605207437663,7.239290333399175,141.36168389208996,-100.85094636932513,60.60408438082403,11.78897669424776,85.19970829253431,115.56594680773173*-2.4848683695786797,129.3661465000528,-237.2617909605228,44.65384260418531,61.68741390448517,189.41994241600327,58.09477393644877,-425.2079521407227,-20.3062856551911,54.85475126638438,-62.531626403340454,79.4500827280128,-150.95059650677092,70.74075259700793,-241.77017719112567,-101.126719040414,42.52626175970717,-52.7667365865074,42.39144679745999,179.917360532167,19.99175222139559,-18.382509342356993,-164.81892356940278,54.377711189936186,-182.9369840434878,55.53514385531833,195.2509256517452,114.84676953795913,81.26476506810353,256.7156116441402,-31.85379255066536,-4.06231717347143,-18.599810888672003,100.85384812050381,179.65592856919832,55.59496097216073,12.609792370011785,110.4740564363922,-89.33549156767066,82.62124607269364,152.83964238552127,-50.4145696551076,-108.37789716504155,-36.51327881733973,97.99192287699077,262.76442646133535,37.54500901583573,33.406619897310954,56.76283485797063,0.8090139455025549,74.46252204718844,82.21465697807102,67.70042249340995,-68.99282772613705,172.01333290321185,13.947604901922364,-92.62645278087895,-33.246067115108964,115.85248727753948,134.32915416791548,-14.203544895720308,134.46862190927465,-19.661852568783505,-51.515743414372324,-28.29130591350435,41.35356123133482,23.266080145813568,4.32241621807998,12.132893482014468,77.232550714773,1.8192270912662083,54.4512990368989,141.33550947540357,141.151084042271,70.46726327988085,-35.1285124679203,-4.646261972319683,240.9081742017852,-16.681878040515873,34.67164264845737,-41.26152366567975,132.05272836771977,-25.7555559035715,90.38513422155397,171.62469634243476,22.320342574429272,40.781755554711296,-70.53044567828991,84.25799229531958,33.884459191489825,116.9779876097119,154.83072176501096,155.401579682217,-21.513230409237142,3.090256553742554,-30.711886895930665,-306.29345753623954,47.20106892881642,-87.5563513063278,-193.96866253480277,205.57506908293612,76.59253160791135,-95.61743396157539,123.78133915469957,176.8901056690726,-53.601002819673695,-118.18446106856246,152.92658700804543,-8.50685754966855,-108.30997287284488,122.09954350537315,29.430560115364152,25.736310490003255,-161.96722601135772,24.404232565489966,-117.55826595899866,-23.03828821976165,62.87888268240166,-64.22565035911572,-146.5126631625349,-111.9433181144161,-132.42107785099589,131.54225610494439,-14.636431537114317,-10.27907128784311,-244.00188565426114,-3.9528508530346693,-101.3084945644551,88.64973737134447,-93.9680728224908,121.17232841723883,-138.17100280165403,-7.017593012632267,-34.983353534413155,86.55454637750844,168.8109853791622,-8.858769413116326,-39.667435348466924,-85.58818956580242,-135.67677788164,-6&285519257736,15.21114190046478,-10.685581542494097,-149.6076668544962,133.68369396880496,334.5478156122141,43.906442463160786,78.99701569647881,217.57956028679178,92.42150177250704,10.515171773658087,41.36768029335952,15&5298095972984,-247.39820664501553,154.02603027283322,61.38878408898192,-61.20940175421977,-132.34776553608003,32.71525002072859,-171.10361525599475,-0.7212376290868672,122.7465175279352,-5.550516042463326,71.49387558226978,-283.0068902508413,-18.808118177715514,-56.98301259009677,-162.0202910655177,25.847170543960576,91.22204242419674,-235.55816871706466,-39.696054984089,39.0689379660137,30.77356672481907,34.750507673391986,-77.28210353276462,-70.28009875700087,5.388019196005557,-83.93244202708897,-35.41713319542662,-211.43027182777652,116.43135070675709,-28.86223323648404,-28.232578861549708,141.92826536205112,55.276523264290724,-29.04235284268054,-34.7634628302421,69.97084112396546,56.93353595856816,129.59008983694176,56.8175279106159,6.484608281530515,36.06323361456946,2.966435898563811,22.641036232051967,46.85111322535773,-87.00450229499765,92.04394697517013,-5.774809726195513,-66.74258912486884,64.76818254425997,-135.03221216506589,193.35649537639776,172.39893206208552,54.876127131616975,-122.69791507710646,65.03177321488829,-231.55428759116833,131.25228165235393,-209.89531534261613,-15.54073199509773,98.16253884508723,-7.002884307200192,-126.01653359759807,8.105974401765067,18.43203808680564,-16.895201711385116,-262.22870664899114,-9.470008714355313,-16.1410812893409,-162.3698769003969,-139.12669091910325,37.521619163405795,-215.91183681974718,-10.278109712428359,12&2132339815121,126.93258062166646,59.32712804809022,151.906782681334,-166.0880601891288,-0.4001312823183659,-5.558907873717761,-18.5875772376293,174.46743729528737,-83.59501095515174,17.16505257167012,-22.602837014094007,-98.92983936405513,20.727238032011982,-192.27232021963414,-216.5600742218581,-18.974256038338538,-80.25514193216647,68.32220795543068,-8.894363777706387,106.00545661758792,-99.98557990073736,-115.9041594662018,-48.609533248905485,12.480473808267583,-1.4914236681936794,63.94091503660935,-447.9388699787808,97.46970600713757,46.2993233853955,236.83250161840894,7&0622245173483,-106.31627376980003,-65.97101319784741,34.17585014865699,-20.92157405014067,54.19216369210402,-25.217602535049174,19.991542399338876,-66.87995315726543,77.3445930548539,41.4530064435743,-11.870732778503461,-29.286196955658312,-103.21983261295091,-10.58122849684265,15.742379389952367,179.87659404320289,-4.490314242433706,-66.22135206506792,-78.73981690531608,50.556346622677054,28.17939315373031,14.759491421075786,-217.33364051877533,12.020340704083479,40.81308387761802,-34.1282938239684,42.06028729336956,27.53202595855433,-208.97212283437392,-97.29633459677837,-81.72674411642808,23.59883454521981,-26.62659321798342,-225.53139215176196,144.97741155179847,-7.641395766737798,175.16427805096404,-18.070395632339995,58.77494126790459,1&6699680380665,199.53276110386662,57.03684046998007,-103.93074275278589,-21.359933162607057,-48.2998535381387,169.03066509013135,82.15237064692543,162.66447429224397,65.84247727118564,-18.01414639581621,130.71983683568186,29.872315242330348,75.75559780615485,-16.00506314772877,-133.04058261126943,123.30260901807195,-125.88125545603808,-51.12190345953927,3.8318256313206285,92.12046408863971,-59.38164891437439,89.1808055530983,171.0816855287956,51.333645221545524,-62.8529341122606,-167.2623792965126,12.20051673716804,142.4002743117715,134.26760005981205,58.30964854911469,5.747125721154062,-6.181191049679361,149.19842856603483,12.804085400445226,-142.35417730854894,10.529400906779047,-17&8394193570362,4.077310228685675,-35.388404407213244,-33.335217321692156,189.1388424686676,-42.23758523029214,-12.422613561145283,-82.74023070154705,-60.83762827709,157.82521631294853,51.85451582708705,-32.04014928732659,9.319719134721515,2.9872061604060622,29.975017375819526,-134.9005957706075,-195.10462404137587,57.41063508423653,25.31415724443549,-30.658658794370215,-496.7643587537124,120.19763967310436,41.77309124529379,-147.54046275027997,-13.157152500380509,-96.52010295067103,42.60949383145624,-57.89223433437023,42.122816702726844,28.261185725399766,188.24141625723635,64.44844344040085,-32.996862202442024,73.9145857984569,-8.357768162112995,-46.42975349735759,45.36807011068159,-7.599499423528274,41.968574023200844,184.99545554160446,-114.99709394341643,-6.574651795327068,49.959019218181766,-159.25978677382304,-224.92771319759058,-10.37878318024531,35.89521550573463,71.06709954657666,-68.40362179322105,-153.77282467446003,-3.6128216520764185,94.41303303999368,9.877172319465537,204.89280000327824,-95.31599812731953,61.3006912586601,117.35962637814572,27.055952021330725,125.4205657056366,-25.466518784462846,-184.65186296805123,-80.87494268347936,-107.2732197948969,-13.835199149114151,-180.747018413293,50.84278988751473,1.6904189502087836,-17.422145658489608,-263.56447355510363,133.50965275683737,17.46818826507847,107.25510725928494,-93.10693404084985,20.899008921779814,6.9077214909248275,-205.38645909785782,-163.12747115868723,237.77641062879871,-88.57113852121522,18.497002945751998,-47.21496924933547,18.495391993344047,-13.397102705118806,-96.17053763137079,-60.9493499678956,-99.15557926405353,-13.196043195073601,50.633547649250225,-46.559535874004666,-215.78191412098337,104.67504319257357,41.26562056600207,-166.8193881244324,-230.249351505241,74.48773181640381,136.32179191612647,15.253013390401476,-15.007365288569527,82.43713768476125,67.57842642330519,158.63412906215217,-167.1399405343536,44.2982747874183,-38.044843217308355,-48.228136964704966,-205.7923724693133,-209.64652757697905,32.30169687390705,278.1581584680125,-29.96435336550343,-81.32598096650524,84.28067274936224,228.35729882286165,-22.276526634804,-18.878425739009142,-8.585376257226262,-45.28351564141181,-141.59165053125807,6.432455383634651,217.74090597919445,145.08515612732768,329.19758160734574,-15.266313083458181,24.25789867220743,-75.262724289784,-11.790353843428923,-16.539270305120212,-30.54512186201495,-11.706050447044488,19.004700237981957,1.423884557309365,45.80152269911781,180.53719529601508,-47.475992874702605,-41.94110920951266,38.829793095209546,-176.24022399439355,67.0241875914108,100.25427290794485,63.81179157059852,50.69155847533713,-34.858894079000635,-17.066204831649344,-119.7381266353414,-286.43007839801624,-88.56780459567454,-93.33751136431027,-49.24135208162215,51.31088775012117,35.78914022752854,10.500763534478113,116.73204019223525,-99.14659589420705,-76.38286762241823,61.9077958605091,-9.786780064734522,-7.761499817150125,48.141928681327315,30.260140210160934,-17.514940897459756,11.102843258540465,-195.66672991400864,359.82333947699624,67.54693822994352,39.4130936683582,-48.56844697671758,-173.8031541365896,-93.84412311779226,190.91736505926687,200.5509290018915,88.33036514431139,-2.2663818178360278,138.5825511170685,-85.11090411726123,63.46344507681326,46.95091165510061,123.09413368169157,239.1995386998638*-6.929843545148473,70.7065302890397,-83.16733655003084,58.55174370616088,82.02975348723739,137.52850619977187,41.728726669814186,-134.61414983452326,-23.300203774059582,19.26801110210057,-59.31536198921627,37.443040079430375,-125.96201283103605,37.72245024184413,-45.84868428463803,-57.707502908917895,40.52739716403021,-34.33391845574983,44.77135351878949,96.03506891005446,16.075667213971105,-5.2472349549279835,-104.75131417234726,81.67138744273142,-278.6709745949311,61.65551332579997,36.856104243755794,82.62849499117135,73.04825538479494,157.54981715542877,-51.147530244573716,-5.3302657975079715,2.313482497857975,99.37820924492769,72.04137718136728,44.46955051856422,-2.264137951129173,125.99453587945976,-49.30263595735508,72.64163603715441,90.62503134301296,-19.25126809325434,-62.520073590073714,-22.989176658746164,117.82484841715726,114.81202881721754,24.627248194464098,-2.5775216881970793,1.7502995921190994,11.280030262362713,43.95852717992862,60.807025391356476,7.263805030858865,-81.88731047430464,163.78388618439806,17.42818094699389,-109.64720225838761,-42.402374443947764,68.02106282081685,56.197534918991245,-16.013059378013903,192.73114002947418,0.4761124145877368,-37.47458954167768,-21.160560130122,25.153599273316406,-4.91575098615023,-1.817410262741256,11.670826002638046,47.10846464645692,-4.387866964886344,47.60862205695126,118.00944132871176,61.8704894837217,86.67015118153881,-31.482254745707134,7.020461260262128,154.59243865756153,25.90572608091388,55.559095945543355,-182.9831363287658,74.23343681765584,-12.905117186925972,75.31725958363569,353.8333736056452,6.151339002382919,45.23227584021983,-65.48624552706985,68.95518413895671,-1.7742047015126303,41.204519635352554,142.63133006796062,71.72189143749658,-5.799427201292024,-24.04072082106727,-5.898160997915271,-29.401024034131595,52.543940617342805,-42.90750178506921,-73.63540957926658,104.17922773293007,72.14530921167571,-84.23995417770355,98.98175943579236,78.75382383987753,-60.57732802563103,-83.0254278297419,108.33218520427954,-10.614481740807337,-202.98643153769075,55.59168220219239,22.698535518392305,4.777452980450598,-76.23057742859761,-12.596048967043153,-56.7773347654889,-41.919031771406715,184.67970110368165,-60.33500734307418,-29.522874033150757,-82.3179032278576,-69.81846309720856,101.15739745853142,11.05800100364326,-28.039105594947937,-122.39803653742113,11.969269135633795,-45.359953940191275,66.85675822113038,-36.37117778045093,86.56444315366848,-133.92670275584956,-13.048290980972066,-36.871928493285864,66.23378105699933,406.63237931159233,6.592415738361194,-10.860078159060743,-47.433780747367386,-63.64156622481477,-22.62640733238653,-56.69013727942032,-25.489393290423223,-25.05797356761548,125.52248311883898,132.13434140748618,36.717520240195434,85.17867460357286,132.96717270486982,41.77320050488397,-3.433318423218669,17.413539493901613,75.09919575996058,-196.44146409418894,108.46971305733696,24.156473948669454,-37.38995379267007,-131.76372565985392,-0.19837016343453923,-103.55735946212049,-10.959417965958766,145&122066471222,-4.456979254399804,80.25179720537456,-100.51943670865128,10.411667259659371,-36.37151701011123,-562.965758482203,-10.761522731504344,67.93766375021514,-117.82254449799589,-48.795842471931934,15.565975975175661,50.89809086906523,9.735907849998359,-34.48839562559432,-64.64007527477767,-7.402582388493611,-22.245551135739646,-22.449814052906984,-164.84395173258167,55.22367889527392,-25.367173257250613,-29.940650439159853,88.79763082407797,15.138947849542182,-89.30597433237725,-5.942676453281004,132.98555758648865,18.077588164462302,85.78608514701905,68.17072050771205,-21.025777431219538,18.83907323959954,21.586998372122277,10.604764809393414,10.574459108449577,-29.311648030134812,68.7412050018941,-23.76151233969827,-33.93282430395019,72.84205498003558,-197.8088315007098,121.6291686352982,92.14070265140649,21.000499217030857,-356.1031489435168,52.05263778914085,-75.65414996162728,79.07996628602821,-128.96254420788426,3.811340300008646,138.3018526727573,-11.944617778002327,-66.93297189768005,-20.792236357028635,-2.493677586548331,-18.554174145448304,-113.6320609039467,19.85179301269154,-14.165873566992072,-74.98221381888085,-37.705402353173724,17.762973466252813,-113.02372949406634,25.47705973982047,97.80475279694123,33.5547329216755,66.72866110874872,8&0736137935516,-214.64996141169797,9.5162952919905,-9.364191485521523,20.70768587985393,114.47854629318599,-4.112262505635103,-3.644124139272058,38.279033567867096,-20.270613319285758,17.792017824048976,-179.58684831748883,-81.91822046657093,0.9873277269831876,-60.1582106843511,39.07164429974912,-4.68169093640497,110.12021584338751,-77.22988145257685,-74.35747328829954,-5.8107352819528835,36.99297120314231,-12.469715742443173,-3.655491295299977,-101.34355000703081,52.31683755132543,45.315764473856746,127.9772946242645,51.44787259875195,-37.468016643343425,9.292415839569161,-27.79871349896426,34.01298945836665,97.87165392936008,-1.335398024066317,16.00762237577487,-54.8524525966998,38.34435969718448,38.087566613167986,-42.07437876498693,-30.973941857949924,-160.43407488187412,4.157421276545222,26.39464394732722,109.79474735082854,-3&31380825225835,-72.70506994661916,-133.81337400973834,20.717624604511514,7.0416450720958625,31.212049365576046,-129.33000429629132,-3.4527951220916955,19.0995926116103,-12.798105336928625,34.49869060828448,33.24642724890552,-69.18681613363337,-59.77155124699276,-3.7647135713253714,12.139828892093862,72.03901256522846,-152.56730891771025,84.8227161025278,12.61975851503164,120.25710092403051,-33.83058982862358,19.45229748877779,66.03523874690984,110.98508105179856,68.20963629343782,-49.42628898231164,-4.762656330436068,-39.34090608699203,268.6089010042416,60.31968877570634,153.14631564930374,52.967100960502265,-4.659934971189233,89.0862449498994,36.522663791583525,39.77146592898428,1.1540082867525565,-115.94088786465946,34.9609292023367,-162.15826720927805,-18.265238785827798,-39.07145578692677,94.8276061977854,-39.43337986791257,38.65455611339308,69.97666404357415,13.374885261047906,-101.038955313991,-129.1979642334739,36.02890242012509,198.55123057018574,59.03565206177583,79.43311362280203,-5.114751152067346,8.929264489942119,70.7861396185942,-19.835360040270867,-75.20548978423324,40.51626574583892,-6&5504941787625,-17.020406887430127,-14.610341542340313,-28.41897382356682,57.547962566914244,-31.012060355132448,-15.968764755025559,-33.168225817423675,-20.611814170773798,88.08701128661812,45.09838575757964,-30.368232933233788,20.347083498345327,-5.384281472741311,18.311308618038883,-43.4548803080023,-111.06790670055297,15.276210110844406,25.767498604980613,-24.667571503513756,-230.17804180449238,81.48222503489711,2.743613178900356,-242.31626238813638,-15.978491406497183,-72.6325334464463,2&73904500267126,-39.84784658933911,61.48314816680081,9.399994986552665,83.29335431207039,52.63454014576887,-20.732173152767032,75.19964202869647,-5.503015372638346,-44.879859369625,62.034945898038345,-41.707574163042175,70.22720725837337,266.4996917535179,-79.6992517230784,25.838234341274056,47.156537886254526,-274.9360342356163,-170.35618160978615,10.62441209043412,88.04303785611131,131.11769292782265,-124.01387966648895,-132.70387549970113,3.198791961897902,242.10118106035074,-4.363919458862273,85.18827752329356,-80.53491467730943,29.82340353502194,38.90833237403081,55.363178023406306,69.59273514016516,-69.98904057916349,-121.26417208221271,-46.15717905388793,-90.28246308889116,-45.372995763746054,-481.3831977270061,25.110206925743416,-15.07593771640221,-5.17580201047573,-107.79953354911953,52.967081489115365,13.876037186218392,63.21948688624935,-86.12901194367367,19.455042502657168,8.642702357474972,-94.96173454094468,-85.04200360181022,65.68690949168258,-81.61026390536982,21.26943504926717,-64.09453717749628,32.48039693900548,5.378683330210864,-72.44645485922688,-70.29476639453206,-34.926852909128556,0.9824248963718732,37.80568525622639,-42.44552123072542,-125.36854825371503,47.17229613500206,32.4526944787262,-119.28427854786403,-141.03591007214138,55.46766876414791,81.40329803313438,-23.437857931935337,4.137512236931756,46.537298166682476,47.59143228274367,29.953884452547996,-104.06177910504215,6.281261976402872,-40.69490818650407,-54.50545171890136,-148.3150743553268,-153.29164013353204,60.64924091449883,159.08808079323597,-21.565323455976092,-78.67577265677275,60.979542758116146,106.14133230978632,-24.523681185015974,-11.833102445597177,-19.921577811791433,-72.45115936658836,-53.1766745758294,2.2399697862416215,159.157952981759,142.76901515878257,176.5838169672537,-5.98633443040606,39.31304989042124,-19.171201804121488,-18.31804049343147,-19.11091711021565,-39.16020230914309,-7.3483037518286345,-13.324736182142646,26.478569517536116,86.40084765443966,88.32671704392386,-4.5974702424851746,-20.137712533189628,24.609457587330553,-119.76278216896947,97.58909271863806,53.35777547627295,27.499061189257084,6.045053345306725,-28.201324745084875,-85.79599539067304,-68.66681917338906,-105.2321359663898,-62.66775335746449,-60.774813926860986,-58.752328863756695,43.65443881202038,47.33784708961607,10.687849457286017,115.4681523179535,-87.60280522540768,-77.11933672012734,25.374065150198014,-6.304372888687208,-5.089403242441757,56.3851051942212,24.557526407553592,-16.209400028314157,-9.164802582420036,-92.17789781196069,85.87824441744996,52.686788710814334,31.736682709656307,-53.58810615284514,-62.81246667978968,-99.4448532196301,349.87158880304025,59.78045275006989,63.04543350721624,3.3029725501515497,91.19025123503978,-147.89483636984934,49.71361596768849,-8.50593933664327,48.439232835384615,70.93626698145258*0.842439011829273,59.368724802071014,-182.5491641753988,18.889252308236667,90.91836445668208,103.68470210248745,52.92031135170663,-480.711188319993,-37.22191026726034,-11.988666641267331,-62.11738764202867,14.926358000192566,-108.05467552857209,15.316397941116046,-88.23881429080018,-42.356092547586286,44.38237509063336,-56.81948546892976,55.18545990838671,195.3831408267409,28.309051987788727,-15.824695179083474,-118.3592023895591,5.090897918425648,-6.7095613336482485,80.43984804153808,38.79057410965635,107.60482716776788,66.13040816875113,155.12864962958568,-11.68957280171077,-42.33693710194882,5.482723153300812,57.248055360070154,53.04998413488216,31.76156656088136,-16.077508888707083,119.56633612640334,-39.4114850896186,31.604226919709923,131.10191025451115,-18.389145176771752,-26.4779028264605,-18.33129365439873,89.03189663765573,44.178892388190405,6&0984511920395,44.23871389702298,26.97649079414581,7.530467209462987,37.30030717456403,91.99369711869775,35.59908730805098,-88.77677749472082,211.6500356727876,-15.11667764628714,-87.35947002643259,4.50645799409659,85.5147033258916,10.802802413686331,-17.987062173451186,117.16992873036594,-8.820181876088657,-56.02990803532843,-12.772011166865141,25.4818320790135,-0.4020384490944215,19.297868940662678,21.598665621071273,4&0380751918886,-9.17643995962338,15.301030064515077,97.11900283133524,46.728206307745104,25.019877166272238,-38.91239938881646,14.944540162199306,142.19870302011986,5.386639167453453,53.545061936743295,-88.54210872883418,106.76128911079583,-19.968514442012545,87.9491648098348,82.82407612683271,25.358425876012575,54.64526474125622,-53.04646189711024,80.7801680810205,17.241483660438487,33.88659711940743,135.80019664633014,127.37415124777365,14.241159508212196,-18.039924464988474,-23.69566684666689,-28.2841347100124,34.59707848768855,-38.47531100404144,-17.937913568887883,92.29153850203322,119.2204168836002,-101.28903674817224,92.00515961894153,72.08504273955137,-41.26262745831337,-50.648814091351646,96.51876138553516,-28.66815915022125,-74.66239597400386,149.66477554714947,-12.176764828119783,26.14633996554116,-50.15166443691202,-9.33683365829095,-51.71697778255866,-16.12140519820616,178.15308183594743,-44.71304474958848,-189.3499067127426,-96.62215632731666,-44.277185735904894,83.54046406617188,-9.966605642340816,-10.85754708681437,-90.28049111066588,-6.742282447479782,-55.88875552432698,82.76786043632553,-75.49580406655244,91.87293596883636,-96.97746719460244,-13.963879211236035,-31.455272920047662,30.94387826038621,329.02988638464194,-31.690183603123863,-7.071872080541523,-22.460293962533033,-40.13561625135868,-4.029687878402402,4.6419859246546995,-27.035267873076602,-37.27902526843697,91.30463908179632,202.7604759797869,43.31990426778179,94.94402724489643,214.6393506472961,106.81032925408498,-4.428584972055802,5.128268159522611,63.44333458324851,-122.29153038399512,94.95167367827521,17.16223071120336,-20.15365666148837,-79.68349571247383,19.426469329259426,-81.38357768267221,-9.453921264045702,157.1565806425203,-15.940072764843977,69.45998898573609,-80.85380089127302,-7.653369715304517,-39.552424412659995,-430.3429211515506,-11.26303247073398,44.52457459764728,-284.1023611153815,-45.284294857662644,-33.47299801794281,29.128474842416377,20.950988798277915,-43.37881121465309,-55.1264487972257,-28.22997870499424,95.39861461603181,-31.24076853384575,-142.7402192465618,57.46673518805548,-37.446057917844335,-22.81341918876929,87.90653465622698,31.124416119759402,-45.72221127207937,-40.32457788799618,35.0434351836152,15.87681827140502,83.67527425206487,68.06733895833814,-2.7267822182981907,46.67950433080785,-1.0614479290892278,10.792772517513061,27.417855292512456,-127.68472770655143,24.69163599502549,40.63369514787281,-14.586798499295293,111.68498434658905,-94.53791158249683,58.131985976162,113.62489343403861,26.541577225614656,-317.224113346408,43.33921299766163,-135.99275454133496,77.61106681041453,-87.81800082653118,-14.455612005222617,90.53718298194087,25.93747941019983,-68.31762254668261,-11.78809374730665,3.1214070424544813,-19.29687086145485,-81.10794363762733,4.350254786175664,-12.502987491516254,-123.48612085732391,1.8249902406994984,17.493657098762363,-110.55904442108373,2.2021666908418918,114.08820236800148,60.18735976410498,43.366831011232264,94.19453685960497,-66.28318022590459,-1.7084984496084947,-7.593898482649591,-2.411084202525692,80.16362603980265,-14.274662378350861,-6.292712795484309,15.008596118140911,-75.64134780474524,17.991109263297442,-83.50356538403324,-165.4897321078801,-20.370532309206016,-16.005075973469154,78.94273488781923,-29.91152090001621,102.97937447027404,-32.52790736111255,-67.62354306518495,39.5253147673791,30.11444887661033,-10.629408255838031,13.451142054978419,-152.6089385805476,20.35424425410049,41.145075263320976,71.08543946575062,59.44418919539134,-50.572999302239054,-33.117260515252916,-6.668771493788504,33.40459125188598,90.37822972044205,-10.354004932524996,11.58598933465039,-41.05745689216908,34.68999083616365,17.159191596211336,-28.822498450272764,-34.066873934184834,-86.12252840338563,-3.6887960820062187,13.750294256543972,101.4774236745528,-37.189738852128194,-71.64378324190093,-100.63099518768469,58.890236252441845,-101.5881294322721,-6.793179973304063,-158.32440474323525,27.246828303118846,9.86444675040466,13.03158355130896,2.8496951106878674,-23.06340990556681,-178.6220237477642,-70.7185719142048,-83.67873015118306,19.129819425237084,-4.613267560740817,-223.9070511351955,99.30377673803855,-5.0814260567584055,65.66800244156344,-12.660935825051745,21.400502823075808,96.77079938710834,106.5058444193021,83.136974342079,-65.13027502209819,-4.753043373081785,-115.05379594089244,137.03257321397243,16.96881396180483,153.9541137198885,73.6828468870966,3.8281415498263747,58.72810164719256,34.11106692209685,42.801147632907515,9.217195606899377,-139.44247691830327,75.94655792152457,-122.83900638741643,-3.8818803819538013,-37.274310156220096,74.8240986678865,-52.18473342654224,26.569445091499116,102.8224060354878,28.563809314810435,-55.49256495117504,-114.85561337384377,40.71201856108573,192.20693823346187,83.6049860656469,51.36690176333988,-6.509266352024163,13.432289081733824,27.912110541062184,41.83262664196297,-98.34787494665304,24.093006998456907,-65.32850199180596,3&1284748955065,-2.441272078694813,-34.20253035417283,132.86294051328557,-40.98440338041948,-20.349362737153946,-85.83777168027176,-33.61321772913942,-5.3916113704204465,56.49319423931918,-23.966982846880082,8.880126372260452,14.909105433970508,25.567363847869842,-117.6268171286686,-137.57953633170254,32.15167258348895,33.90115265010102,-24.96200154870666,-118.27407097917472,100.36325417283318,-0.8706453797814789,-131.0172862052997,-13.351432977606873,-62.94281570695163,-6.101500668950751,19.69380985563474,25.881602851690335,-3.3109521626829896,152.5261918660338,52.29408738895815,-36.735152290996744,46.03291458222706,11.259830395960355,-56.86667695429438,-46.81365903263836,-52.374321179275995,44.80478111903144,283.3141135943914,-111.30563074332748,-14.61337273877008,46.5479162246965,-58.761509780268895,-100.14379122899125,9.526814999950597,-7.023996446733511,140.43471836724527,-232.78960266389674,-118.15376302696373,9.324911161706817,156.70132719233578,6.949873789610878,180.586036492045,-9&2890674427545,76.75403186059113,40.92125578861065,40.51007750990023,25.440802870773886,-83.85164488553599,-155.8974588238679,-56.404807623620655,-44.59185116309927,-78.16283392502295,-265.4959642028626,118.94890732679814,-14.02336354608887,-2.4427729241193674,-93.89509882651109,39.46981851676461,-7.327359453040202,91.22029597805582,-44.28553058003335,15.74953560163489,6.272770836080534,-79.18035268341055,-101.7271196302639,86.76489347619459,-85.7440866777933,26.43522437038509,-55.877884135936576,34.90003997232722,0.7418571235590016,-65.37518802544334,-61.88439154012675,-81.89053200117854,1.7066031330897282,46.40794950910568,-28.51938592552165,-112.07831602683491,27.079776473467557,18.639907492958454,-93.15866166374352,-93.2131147758386,54.23128988785492,91.70488736814738,-43.915936094058154,11.027693714519044,47.3139702486476,38.65829154175192,-16.770163916718445,-215.74428329552933,-4.456898926223529,-36.463912827708214,-24.278251169777928,-108.24544989634151,-143.011281254908,51.04125911331856,228.53548031826944,-32.70527395253395,-58.54802765321868,93.16967419877426,105.60623159209712,-12.630685758867788,22.428285131454384,-12.54558196845158,-65.13328430009012,-89.39750244622716,3.2084293886324113,311.8989541238519,531.71297528759,175.72812066835468,-11.47614132504483,-17.89356440108618,-28.068598304020394,-19.54406853940503,16.191730411425503,-27.95532508146137,-17.9185570240639,-2.6873507137888497,42.988203840903395,74.58892176590246,87.27493760839657,-41.3581290622962,10.103015544375104,9.173455930682474,-144.4120090896708,75.12385099955864,44.12878980986725,34.96365133437273,-2.010256049373356,-60.324667008419084,-48.88685624225621,-90.34056599534833,-171.998751779992,-39.41689697587141,-18.1425818429402,-36.053864305201856,49.00830677170627,52.42640461421713,17.272665867761827,91.2137402489117,-53.9297127123984,-24.708515519271934,57.69300608313179,9.166378703976484,2.2015468040641415,54.22291277481219,29.503641730682297,-9.000719653432679,11.670802945793975,-76.37211026173219,49.66040763570109,58.19460103393649,31.721435988456612,-21.904813972646455,0.32431967152438196,-72.90904956466909,223.1445602499719,92.0409343238663,69.61266400877994,15.047159120911346,96.1143435550926,-78.65382535486505,37.55789645370409,0.7409646970690267,26.557740093978694,54.62892811075716*-3.304868001232947,78.61963339539408,-181.40362276525823,12.988979251316993,73.38844023410384,112.53251939156185,51.00261775774747,-551.6469283571805,-34.39839039331297,-13.50698414498347,-60.40234444373877,1.9051850386049511,-11&9669595528707,51.17010989493813,-138.9305011118243,-32.71810648116366,42.765321951687746,-68.76705033389831,54.0895282597694,123.50147424394954,30.756747332126725,-13.171047441337723,-120.29795439307759,31.50869655257715,-59.63659610144579,81.5840590189405,95.95243687052587,112.78317921142475,88.6354563321226,130.8879028358757,-24.545939763477726,-25.85250356359937,5.933671746036399,69.09235203260356,63.97211199330761,50.16901084544043,-2.0241433596504277,117.87658768102489,-45.09727652116412,47.09161798228361,168.46524048081463,-22.6163325048227,-41.19593151373126,-26.777749627813893,79.77646852043885,151.55032653373763,67.64287291120228,49.830455719712475,41.42952228433309,11.303964645091336,52.92777784336786,99.50455021390755,58.99344176847051,-116.27897676817835,148.97510154676348,-12.382170584069515,-67.30482079573214,-13.602512604624739,91.79640851106493,52.859659445448735,-9.637415681061377,149.08463142525784,-27.376459778107993,-69.72349807066614,-17.561365990542978,19.2047731944721,3.7078169485034573,16.20062899732413,4.942690248743607,42.49965152292177,9.325359895681835,27.970813236966272,105.9175773181295,51.57562034339837,20.266997863338773,-44.37796899841225,7.154117933704256,159.97171624001842,4.926909333236819,52.376328406096505,-28.704040948000394,159.52678705191695,-28.80522956191807,93.88316279710295,115.63390548470264,31.063456470082112,51.70732388055725,-58.626114156876376,67.85682223752465,38.44845509913566,35.38286389879923,135.4715721270989,145.47219909189886,10.685355342567231,-11.301103959284754,-29.399826796207982,-151.25312231109334,57.90054445401274,-44.3166735135407,-92.70357952318523,132.49701530517973,56.587484278326144,-95.99896332457497,48.03555031682926,90.948190126099,-47.5248880679442,-70.43712930342366,111.22557136017764,-19.593111616387404,-93.85196993735217,69.08971160219988,3.6585544137384054,42.013216038849386,-76.01995802110842,6.421385221005753,-69.68797506876184,-41.43487464201845,102.3243307759367,-53.77062084269275,-108.63294247655314,-100.39584366886642,-69.30986368708764,61.26540206685518,-4.012274671101871,-21.419518380555022,-138.5319239829953,9.425754888200851,-66.85166480005633,82.02151733896898,-81.24356722932252,101.55225744428857,-116.43293973996367,-11.947562895477802,-38.51053111628176,42.83278437378403,173.3939853343532,-24.199043972462494,-19.814987050547746,-28.721244820258743,-109.36661562962544,-45.14729975832414,8.432588974437916,-25.76977827044437,-62.109355310814735,83.3247660658037,193.6750983090811,51.07440847237638,90.98411170442985,219.18235398436514,105.59795693142016,11.918043127597189,13.068041352190308,58.0716132975044,-145.11652395009304,101.7260314108013,9.990566879681205,-22.863907797685616,-82.91064785045762,23.671070168496826,-100.85677709749267,-17.272643646702715,141.8789069857651,-18.488461301020838,59.51131548081234,-118.80831575794524,-3.8505882662185313,-47.34517266203275,-240.9529442011246,31.784298113774046,75.94727716090614,-256.46898235835073,-48.64101583682844,-9.623358479202222,22.79813659606491,20.459419823543914,-44.49008522696562,-56.239469714705564,-30.38957051747722,24.006173766195218,-30.738529609335835,-67.68284158339388,81.68299116196297,-41.3302714571659,-32.58697636861009,123.5364942881353,38.158975966188834,-43.87160227059392,-41.29933366215866,51.066258876591725,21.401150329502016,99.0797872047581,8&4044125255217,-7.787836660531132,44.891546910910485,12.82399365065655,-7.754436399949822,17.267000281887846,-85.65411990850919,20.43041915411495,3.1133455214556403,-29.876000860832683,99.53282665516848,-122.23420337657936,76.58449111647732,130.44480684965367,29.467833238658073,-179.1883565744607,39.06932565377828,-135.78821773143952,92.1637290717729,-85.69258072856117,3.7010637058994362,87.07452937168998,21.833590203867264,-77.35867369106423,-13.843506865757464,11.278400358005348,-26.37124433887248,-101.39590643486858,12.278583905063208,-13.178995520384355,-131.14953482393258,-51.47990890742845,12.810457306002215,-118.90292089368003,4.715721907922795,93.52966183779237,85.78013444134692,35.08264651301411,90.26415802292192,-71.03124912904785,-1.5796005948371679,-8.453940603410745,20.214112939902392,103.25923194405615,-7.503126560302294,5.670187865236835,15.325323501910848,-77.60712345121769,13.48035311613096,-84.10778118036903,-197.85965791585448,-30.793567287472417,-72.02263882432992,69.60956996840656,-24.27898969465181,135.25114299719965,-39.054505636479284,-55.22783589262687,48.94389910262369,54.225428318074606,-13.246519765244155,33.727387667312186,-227.8168181451234,27.79064230570647,38.37750806221265,100.160241591379,61.69925504811664,-51.41039095519946,-66.71638180468258,4.38984075701183,29.757906692854462,10&3857789895488,-13.353163459393953,18.074032502433123,-61.09815988752882,27.847049563287236,7.083585884396814,-27.71556290082535,-25.652229277340815,-101.31726602878088,-2.6577241470335236,18.238629164389234,107.97942112344981,-40.65721808969676,-61.110761820653664,-11&1665918290549,53.246557806562215,31.735040880376165,0.6860527700212387,-183.77854111355438,37.24976393454296,12.935135736336145,0.36923290380871626,-1.0794675139253702,-36.42552700634669,-186.49006616011113,-70.53104031248941,-79.59328737153307,18.58118808747443,-38.234235514614085,-252.70225097432552,100.82035427094438,-9.639046236743434,66.14702264726986,-3&36492033183077,23.2235315125347,61.46837744608973,134.60499917067833,72.38016096655188,-102.17812787320123,-6.952381308032046,-102.55718822700597,92.20981670563417,26.033034292740282,169.7999433594316,58.697852363201434,6.779833317284918,128.4362321537922,36.192173707896764,55.59358602742722,2.9101946406378336,-166.79634437664632,82.31569589635497,-111.31990040087186,-7.258300495230177,-31.38838091349641,101.43106041880058,-64.10300588573762,48.808836639750574,92.2642233527948,29.062021388702803,-64.06570256625294,-130.43715486141411,30.33523527203286,170.71927834691704,110.27485736504188,67.74001942004257,-13.860181297914675,19.40942780341659,68.3621809188632,18.63420806370313,-130.87259286955396,24.637011111326334,-66.50697513094875,15.625729626874381,-20.176634614705275,-37.547450263949614,142.78349411836845,-42.72343182797433,-26.67186288448734,-71.00628200092324,-37.2588815041081,39.590414503872424,61.58052405181075,-8.763595215748591,7.450866272337709,2.291631879112381,24.77476340511015,-145.43455823865395,-120.22212773974563,42.36401413274083,23.894951874280597,-51.90688761814489,-109.4169308109139,80.49430200902944,5.364301636608123,-107.05656989134425,-12.575861105787709,-61.81250951161858,-26.633764483021597,10.22191294458105,17.19858970341978,5.338661394214753,193.33405691610497,59.85210080036696,-36.04377134268459,55.15968824094087,15.641111640295263,-61.48547010712784,-28.524581873584015,-50.560068904251644,52.95200485071829,208.12110531851204,-99.1890931039976,-21.028188873993688,48.881426873018235,-81.23207936960873,-108.83576112611986,12.732853041089445,19.249613285994904,97.61257769608908,-86.6540610844184,-61.58597970896569,5.4247400454908,108.07528429073625,9.210122988787344,217.43699938953174,-88.96578910404443,40.18170633016186,61.58026831491801,54.98790317921472,46.008274775697096,-59.511161230741706,-119.19407951387029,-46.79657206834325,-43.5506334914366,-74.22151905278878,-153.33402332152988,103.82887733957114,-39.487825067236784,-1.3999158801426819,-98.89573659794266,81.20209038099955,-10.43119244928801,97.7742781937415,-54.20569462592611,22.780734941684287,5.8675950351507025,-81.37964611661016,-89.67368791119122,110.25972741935118,-85.13805790460233,23.521364069195407,-32.648842699059415,25.358050857056732,-5.408905990107231,-71.11374800498557,-58.537738235959516,-41.846536267039845,5.532906635292384,67.94302532755808,-41.58751513717771,-142.02459361428507,56.31411752014117,42.95065701063544,-110.41211974522865,-86.91751201100864,56.51757498103915,106.73164462058931,-48.080498887330194,8.94530411892406,47.229246951518356,51.17720513072976,4.938882603036466,-209.10850485358642,13.152852433820266,-32.22065246125333,-39.562156024071136,-108.68231656021085,-164.10951984470154,50.24541725091612,201.10517273651317,-20.413966099620154,-62.78798676254782,92.80880467243772,128.95460431238914,-16.910504277574205,46.246559118115094,-12.636043969947954,-55.967343437800274,-82.70465217050418,0.9444668292234232,261.8288506288519,169.11926557015715,185.42776390461734,-13.73731517379639,-14.081022051333951,-46.78067116607324,-31.204787648108262,9.634815071873984,-26.59928178590498,-3.3101933954489113,1.3105423104689247,42.81583386116099,56.696307168717716,109.76239402449109,-28.166316665590525,-5.322710434657373,7.286518328182878,-127.77193859499319,89.9394603836249,77.32246386268778,17.0576895489341,16.167348654163398,-66.91763762900737,-67.57212151942983,-90.74078079671067,-226.1276968287187,-36.96264591285605,-54.23383335065092,-44.90541587237698,49.01146395097591,41.00564988638202,16.801055512390654,123.59581944031525,-48.06494506760252,-30.712141491716903,35.53916033049527,0.15915788407289835,16.03047242307314,47.43263518890472,51.55335116648066,-15.952502352870487,33.70761135641705,-114.85382604010061,135.62327269529374,57.100225574337095,35.00358050011669,-20.564588516963934,-54.54754703983329,-64.68003469167613,185.93339788910927,82.36526713088112,63.819583924850626,13.476882252520804,109.89136119840342,-80.83639122027425,51.384873690174395,-7.031188755297357,43.17170271497761,112.97333751697062*-2.151393325459299,58.22326805925626,-158.89930748382255,14.825687671893494,79.2777497830821,137.20517107994834,62.619091749177116,-549.4214188326405,-42.12440081972887,0.7109400348019734,-61.555656057390195,20.209926704077464,-108.5397362542555,59.49310781479658,-154.85002174805192,-28.9706925773895,36.931212765247615,-59.898600611561086,61.628220351202245,139.77975334941883,31.603877781894305,-12.527617963668515,-112.39195729441255,8.958700801457214,-83.66280782635194,66.89169962627314,97.95969725996845,98.60281985776336,72.04247798222818,128.77520468191742,-34.32485631165566,-24.291094148868286,7.927212953483932,60.99011827743373,71.17436842885515,53.82117225040701,-2.8950990068719387,88.50929272589903,-46.48950554109636,64.53296276458906,154.35630789251584,-24.089863523037224,-65.75568995529082,-46.60314689590914,95.59648128280259,141.84121678848607,49.97299148754054,13.908581251050116,29.955775418743624,10.628547842791457,55.022338531795675,121.81738134491633,42.49544842513243,-105.23259850323032,199.2426503281755,-39.980251452264525,-97.43097600499021,-19.642924117652296,84.47916024931804,52.415082547166996,-6.455002970979756,136.91686146030406,-3.4731726756664876,-48.474281111733355,-21.042405060236057,22.868214378114637,8.539043566925063,18.842962021867613,-6.684103674622886,33.8958302397986,-0.21150522423465948,32.83731845138322,70.1152651960645,31.327526875010637,21.989654877879214,-49.249131747397584,8.54388742464131,185.4746692866121,3.2553356939846685,42.58142215768574,-78.05644445930405,114.86481801741554,-23.38762867670025,93.47641087244183,101.87609156039628,35.26075774642172,51.96663461319335,-31.3867092666495,52.13875043887171,5.943583437091798,27.50819323450184,151.23532197963343,144.5709395265695,8.256083985947704,-9.028228642487923,-30.608101792084945,-49.01215280439468,60.8061895785918,-60.724930891209105,-101.58430234450367,128.7743294583006,27.11779112245352,-93.98343172795025,62.813429760187624,72.58277395888307,-51.136037732881704,-58.8276324266543,92.43053520447154,-21.648336743486176,-95.72351068177058,49.783588577234475,-13.550357431921631,40.577308991525115,-105.78541519209843,5.950700430995146,-57.87882248590222,-26.652035139244607,98.44199855647312,-50.420312419621496,-12&2986740241097,-100.9356187065381,-82.60630810229308,51.8317461716048,6.236343672078084,-25.948094798071196,-135.52783666276957,17.576174688005512,-68.07235834994113,70.53731381151796,-83.49469352684892,97.99275719679872,-95.6817530498469,-15.515800601227902,-31.7956176140515,57.317816637832514,138.99459007035972,-8.604159810212009,-17.547478291156793,-34.148183666176436,-114.92828811954689,-32.20046021367286,17.245205289507254,-30.429196057130657,-64.21549054869456,96.39709063310113,225.387181373159,62.37809080451762,98.68988976396211,226.89809367136957,114.24993412607486,4.80337810552431,14.439703962813383,61.079299056644786,-147.45732227101544,103.06316070672851,14.27199046196671,-11.486644339711024,-9&9348530214268,17.299696684228998,-131.20593673940408,-33.385370586794814,126.94752082946599,-18.16045404596897,68.74570492564365,-62.82750069015659,9.524744021853062,-30.11724003213512,-256.97302672658225,30.75530930454442,65.70575026911433,-268.00813189512166,-43.61328115177619,-19.396997768291726,27.077100302223638,18.954240356942346,-43.17297865037699,-64.24900783236492,-36.8490377555387,4.798581211562995,-30.355077800376936,-38.94532174740805,46.63850920078291,-24.280623080902174,-29.98283225732199,116.06422794048308,21.372773369672927,-44.80990786496302,-41.39369530379936,66.51296893091678,16.326051685917097,63.30391895412005,73.7388466793575,-9.715634799829054,56.292565196665976,7.750075143561092,7.737822881406368,20.931303356724136,-71.29039488149836,41.17490063247643,20.139754787880044,-10.453919340006957,88.15294644106571,-110.28609444887992,28.56628098842248,12&6347938923179,32.37577753084584,-123.00069749977182,47.70418637883558,-115.95115611143655,70.2622861065836,-96.18227406210252,-24.838258953223125,70.64483242769631,31.66036709906229,-74.8284821269197,-20.459617496591548,1.0401696702519785,-2&22633354290793,-120.62108486815114,4.85555611201896,1.841423962097929,-67.91224120306016,-30.47662647312983,16.365249230936744,-136.99109680800663,12.355804076834062,93.69206344546501,83.96132484106803,41.429732213120744,62.70909330169955,-94.79596045990466,13.433251274787263,-0.3779710159256889,37.15716818298074,63.9119032684548,-15.59127904759574,-7.779498826809348,17.64773526185043,-79.17668152508001,6.61354070241985,-91.07011116470004,-148.65113633692368,-31.72288606715889,-71.1008806426487,21.721380785506977,-32.2105362616576,105.80820524290499,-56.361650399904505,-51.52702711799317,31.39099687158915,40.37036223896515,-11.956223653573645,18.132877001284417,-284.3330382372028,41.85620197685311,44.50036826326778,107.49081945116657,44.70240702874064,-54.75169566285229,-74.25890925011048,-9.758351719479448,31.87622778188818,70.31452362288633,-31.862515788811926,19.61069580154677,-54.228796044079786,26.069855944823487,-1.140196092783623,-28.237074946698222,-33.293283282516384,-104.98312733174534,-4.977383350456231,12.85988619277414,109.71508101393636,-44.919964741941726,-71.31708637002681,-95.4809698819051,60.66357914929274,3&77311735018302,16.68345853929877,-143.72357892034873,37.91544463763872,15.146814804206704,3.1746953562561395,-11.533545304451446,-13.163598128467049,-116.53723073612258,-61.862538622516965,-65.11904116920896,15.557636722986611,-2.6697224219667848,-256.6319814021186,90.6246702040336,-13.019321269011373,62.68048498243353,-33.44586109697206,32.15742942761174,35.3090444819851,141.41959502617937,52.662837069411424,-93.91600200082065,-3.750327285447911,-61.34220480841842,103.45198688531733,38.215362392188034,156.92705450345724,64.47730169228122,-2.8263570186777094,123.75125470094967,32.409230466951946,37.49172724770415,5.250280612111415,-161.5151331842128,86.1325496009718,-72.18707954359863,-17.39743752534185,-22.850981958839863,73.20653779708883,-75.35852857126825,30.68228840722918,99.50187257907467,28.540546244187507,-63.80604899145951,-109.54578345777949,31.978849035852882,166.701618011459,124.52614500987208,72.12821585412652,-25.113099762777612,6.266612517237599,49.64660108808721,35.121660225056445,-103.58390746753221,6.518099772458074,-61.24300218988626,32.74535617563134,-1.5306164300461298,-25.401461445743987,132.07771511945666,-31.57912443321705,-5.443001587994608,-68.99748896899582,-51.37379043367823,19.04249405695672,56.87549989533383,-14.21837302057807,10.538512640878132,11.99625363474096,26.00581107722183,-142.51163928065796,-115.67595786465331,31.24686198102973,27.04106017221712,-32.15341276189448,-109.34277263009359,82.82616618970518,-1.7309674581448826,-112.06429828029097,-13.074268580010777,-52.73617921052394,-14.256663154997138,3.298207311032421,40.44718390687502,7.543282084467695,170.33421627292182,35.088980069330624,-45.657889039561915,48.53348828976208,26.176923469643956,-7&4751603185908,-29.470904663835295,-42.194000385418626,57.259971381692125,155.49769123290326,-89.62470151950944,-15.643902382522619,56.23526111944768,-69.57505959505903,-107.00170720872336,3.3061449309750115,20.844527722357196,77.96126026293939,-64.01487445924916,-79.43252273733872,4.832790540063893,59.49870731927823,8.716172016321185,182.65249685355445,-114.08114048344898,25.38822465166848,63.29209645464594,49.53575497790728,22.98760108954654,-49.138090415253416,-64.16049835549181,-41.38883705726134,-59.1929807421448,-66.05829480712313,-121.88016726243605,76.66149307547309,-37.1319187071256,4.131141482951119,-121.04080828462145,82.34865527945702,-19.579707418647835,94.57872247971441,-39.29623616049535,22.593797883443198,27.108149903995944,-88.1605525627613,-54.10804512253656,92.36215888548465,-83.24268875796409,28.341206435758277,-24.534202150991142,33.43135491927506,4.487980907059552,-71.75165027501627,-57.1619291998485,-45.11114663843511,-6.605682317137331,39.498337200175236,-57.53176717906564,-135.24818348752225,79.07806278159974,39.14287986653515,-111.66593516961599,-146.6807763279322,64.5560629459717,121.39774125818452,-51.213206016718786,17.12287220213881,53.21544605822029,55.20927237327281,-3.0999931037041666,-210.66716638873697,11.40694088242569,-14.961495884395521,-39.27309398641958,-122.28569248939742,-145.40388597555784,49.65253522987745,228.21787906176147,-20.800877347488907,-55.95759544956807,68.60897193863968,131.38584532630443,-26.865160050370633,31.659376553996466,-7.535419734081451,-45.035661399584924,-87.25620243453106,2.490802515735191,260.37899974000385,151.05724087194739,197.2862220725974,-7.907178243033445,-17.762779334459193,-41.34499095743748,-29.536054140682296,13.670168686728799,-27.367824498501584,-3.0000302015185563,-56.29030280977471,38.26837436207431,64.93036699689394,95.33321769646852,-18.6084887761829,-13.175582515753035,22.262947800991842,-188.15054872166638,84.5263856014986,79.92589273742433,16.247173418109707,1.7744517960509307,-50.79932334252124,-72.95917579919849,-103.25063310774347,-206.69077410280076,-41.44111063397982,-64.03144289951393,-44.351303763893405,39.74403161727151,45.79186145700499,26.934168670628846,96.18169361922543,-62.666550202817604,-35.93924688007164,47.257056815473334,10.304794229299148,8.64062285720568,52.18451159878115,51.18491333326377,-14.305545708573165,23.312348410500352,-113.60769778309253,144.41109724605278,48.93655056435896,30.67473106229094,-16.120027177765564,-52.88054666057555,-75.27636235774078,174.19197618346158,70.87746815853224,60.704880719932525,16.595077956924786,84.00616501333093,-75.55217232819015,42.78589070111676,-11.193473153714033,37.64044053783826,109.0108453895209*-5.801879287117768,106.85910772259633,-217.49728825415664,10.629518366277011,99.20839208445453,115.15371226085882,47.09291223347702,-525.3736082462951,-26.75658108866455,-12.077075170423432,-60.59631817553057,20.89663567215952,-106.3648085997942,61.00750723767602,-178.26717461593856,-19.94297369563699,38.62823604358053,-51.989779056140286,60.46984444558922,150.9661452211944,27.98644768914843,-10.765629228710358,-119.16598650259185,19.351973886769652,-105.94039608529768,92.85495700508442,97.90108871287595,113.70971199589556,89.73127883410133,209.0014455929734,-24.698000446013193,-23.18273388258362,10.899975075781954,62.89509155792712,48.932705441407926,42.107186485451905,5.629521984919725,131.73547266347938,-52.58195121004282,31.885395086172235,202.91232904888125,-42.023221567292566,-40.302653273238306,-59.56572617287304,99.25769036938969,128.93807731341457,53.92894390347803,121.81119805483105,23.82938907113399,7.054194818885908,47.88527512240134,98.50780574471656,49.01473021778914,-109.52152114281128,206.67849310227783,-43.32605045709784,-83.32008432406633,-18.612621439665737,73.97735033090404,49.77618012905167,-25.1518302326752,135.74609888716412,-12.605181592446927,-69.53242497711959,-21.98581956304813,24.76272230753374,1.899320559616425,3.0725958228331156,13.38827016382398,38.53611198760204,3.3594482688940284,35.700694221935876,100.3194268887555,58.6033595589777,35.67570700549447,-38.867042773161145,0.2441298184227177,146.98868197179215,-1.5487525923304961,34.21615857509833,-5&5514145712508,152.76669457760747,-31.00298742194341,95.30321461796053,105.87797521206798,37.28059053916511,59.636771265926654,-50.787323102157075,71.20703003327003,22.79700987205437,5&2602686112471,155.28272683484246,161.85284010634246,8.306069127637224,-9.905978414575387,-29.75626924273203,-104.39931140048819,25.88767030259533,-74.57119266377337,-71.89483889740293,143.244255557984,120.17776593343164,-110.39931869974951,79.19627279298894,69.63110467210018,-48.536326677572276,-65.45517828888605,127.46510390444361,-17.51183964491565,-78.29193906178993,187.99732633323887,-7.249145870738531,49.289527647568356,-83.64001322030809,5.71747914345711,-62.77194481376986,-99.91147197436,255.5784081992657,-62.278061560204186,-281.3766878569314,-127.02478333130585,-84.94240394518393,88.04947032390898,7.380516720392701,-13.95070335669127,-154.9732799269999,8.077490962783932,-73.495517004632,87.98375852784558,-94.10567162286596,105.23028522519316,-135.58966335462821,-23.23235066889646,-55.44686425229113,29.298197327012396,351.8791643731307,-71.95534100860475,-11.178683850594256,-31.49841703925629,-108.94234779569474,-39.22063168280077,-3.9421427235301807,-1.1244968788387144,-69.16752132569034,97.96227359145992,222.36453675481096,52.649642498621006,97.4196484362789,274.53936853209757,108.14583497542199,-10.453927547709887,8.846618560653013,79.95176289174353,-123.14297459755944,104.85438167348175,10.521029181068664,-24.554941830609824,-83.36561626806937,15.741792282150561,-146.4846841389591,-21.80222443807417,263.34327834569956,-2.952559010033607,41.87435193928049,-108.59453147235621,2.064508759021442,-34.83461029263479,-366.0100776584619,39.04652937504471,99.2068134616746,-351.44392042219465,-47.46042370201264,2.267733022678191,32.367860134862106,28.67768234501968,-28.54619041648261,-59.78896475063264,-28.28707949207224,-10.486017016799929,-35.17945167740907,-158.37897951998428,63.53411035818218,-32.82891136088486,-20.360449473764472,68.27074475459438,37.441410983342855,-36.30684935276581,-40.601842807714576,47.300760359329765,24.39127223560596,117.9358688745106,85.73660015701408,-8.518235373623169,34.17282470585422,-5.530257185483451,25.270897964375607,30.848517396826693,-107.96165894626355,24.123683617916267,27.42929193843714,-40.641124848320665,121.19828248173108,-109.90845498182162,75.29146576372385,142.5073046146869,26.351095408662275,-511.7405942990465,41.48334563536265,-161.58745633640385,110.5570413943923,-95.42084503453881,-4.959796222448334,94.2383424046944,37.56751647596481,-73.0421676665667,-14.40533521511351,8.73863205973058,-28.511131988553064,-93.16267115549914,7.1530199138243775,6.485511097582884,-150.90117923863028,-44.52146425981679,21.141042883177796,-136.5176088366955,20.886158245457803,132.35795747436177,80.72451617339358,31.048572445985574,103.90527312598252,-79.97703174400087,4.354553960538864,-3.1016787712244254,3.201022047296566,146.8065239927832,-2&92828992836925,-3.0932693946965055,13.83385494893085,-88.97843775681346,29.751604545265923,-85.97885066645343,-163.86772189745514,-20.164165345917,-88.25392629296894,35.92293113350803,-24.247913948086122,137.44241485940506,-59.88667502681815,-74.66534109278885,40.206288449782534,58.87411045912276,-9.711106311486827,31.63121309776337,-246.58978409017604,28.22898834559336,38.73562277941701,90.83010924567186,65.19620666222413,-47.83415978480525,-84.262083658146,-17.01171788779784,31.052591650505487,106.55317280896097,-21.004253064772104,5.52009157903419,-46.932880576552584,19.04718841555001,7.011177241068597,-28.15416829278811,-46.22635363962173,-127.48528186680151,-1.8948885381419818,11.795199299431511,119.92949026353665,-51.191845020820836,-69.3857778642064,-125.26832984137721,82.6984281192403,-57.15394080351093,-17.359966678746936,-189.46512976842777,31.917182663350808,34.60500604938907,7.764852316423611,14.023363997867317,-24.42848097624033,-254.86985499030064,-69.4781461869623,-74.77529772152057,21.247638679368663,-0.8274694471512202,-260.13534077976703,99.31173596798389,-15.240464210610792,65.69200249177015,-22.962962363337514,15.789004508732559,80.39360041529896,119.18063537671038,35.433545599077895,-83.17920172760259,7.242337193873289,-113.26348964077692,174.01633397809394,40.37912007310708,168.76063529535364,59.67808402782029,4.418342621519799,89.80215000081444,37.46891835349872,48.754314230173165,-0.9132430891241754,-164.94325549829364,111.35034955421418,-137.3733325230479,-22.508049205678823,-21.143525019339517,64.1348613888757,-72.81941482083376,52.58904707687154,120.28862969605021,18.56413567516722,-65.29401950731229,-116.29648269047158,35.49368518442198,163.82486993205282,104.95194454579297,75.03937763584496,-26.393839703718434,9.269164824093894,61.87458836640161,11.8644118462888,-116.4527733053607,7.449967703545363,-54.62578521304798,26.955353770981628,-23.252873771844296,-7.106838835746545,158.72131800127934,-41.118578241226444,-1.3929299621069233,-94.92805290879468,-30.363098844111274,54.67168797002845,62.136042586139475,-12.354436805863823,9.191092111744219,10.680351577648784,24.3336303772879,-121.46042293108971,-130.4598286221468,38.6665827212537,25.556949075569356,-58.72033690976562,-116.87149593836203,79.04854251516029,-0.917047989212559,-204.19508388777135,-8.823885295465068,-49.47154292002246,-12.859834254986232,-3.1785244299715547,24.951094800263192,-3.0647462550265043,232.36848901455238,51.63452199008985,-33.59522799683359,43.580924839373466,13.167682567650745,-53.00043442636745,-38.5678540657485,-50.67998837279732,52.610421105360274,367.4469635020824,-124.68081056639885,-27.868058236791413,44.8473868135787,-61.037188784753425,-100.50975689716093,11.45483641104871,18.041511414693588,123.28136696226883,-230.751900232648,-170.86029599130367,3.630558750430938,179.6175170093693,9.314929075570378,209.03337149916214,-89.76114162418867,65.23253975850241,9&0497226109114,21.46597348041777,62.972272613197426,-36.44722741367485,-219.43420585993852,-59.215850786200164,-63.443646260442186,-53.71604544427014,-424.98133760164086,191.594441378778,-21.881595825163792,-10.915065809024107,-104.30596783457626,71.20528521542116,-3.5306078348927867,107.83028371608938,-50.13954933116488,22.446605177645687,13.873400354701804,-98.20550817820835,-160.9335329488622,104.0215286800065,-102.06922774317705,26.01299058706219,-69.64019459244153,23.537791465747464,-3.5933871729207776,-76.62959620642293,-55.502548004608755,-129.5289822723365,-3.051204222680343,56.42520059178652,-45.514609786898355,-113.12647006177554,48.66602255491369,38.33008405107297,-118.65010704897414,-125.80751167794779,61.30304233484884,113.92150252860074,-45.3656296538074,5.160490673649398,53.98154109442094,32.4259011311769,4.060918495049887,-218.47176448254743,30.76872546890221,-21.902432898637205,-48.97120798147858,-121.03031904475183,-195.60583169326122,42.65579223076469,301.30834616528887,-24.202663475087448,-69.75274339242783,96.6732967334705,169.66328724219352,-17.749011822224258,13.430039955270113,-9.829740324128762,-64.7034376432881,-93.89571337464723,-&1745037595002483,346.2764942802895,524.2392874849854,166.74948551723557,-14.152665542463732,-19.45043379318945,-41.93246267033843,-21.588651675777466,5.577745265361297,-31.295366197325375,-5.074295648127182,48.808781871263704,21.69686553141666,83.87876144669555,112.6208713587347,-40.83253548600594,-7.516961025505062,14.334909918563188,-179.7615861140004,78.91722604023535,6&8455189443704,47.18800867319919,7.246742786825675,-72.73637946993053,-70.1138115186098,-91.3065903562233,-227.3069751116676,-17.076839259367752,-37.332899030954145,-39.77002974328096,38.11296325118617,51.72705943435979,22.05075665151957,94.61302540669892,-52.7545685384856,-30.861920612703912,50.88571297567802,1.6893193207757249,3.059556575412918,66.38875308950324,1.5016762270905273,-11.860102151803941,36.01664315723391,-80.367692249605,126.3854088363287,51.67713741658726,42.278973670332945,-23.271150556465546,-46.44852371585897,-91.47584466943802,276.24446930791765,99.52961847496121,63.4562628075201,24.68925174285929,149.74518627400153,-91.97917152956562,51.14671570138425,3.1622542640819558,53.965296933192754,120.40963667845905*-4.5016675427911625,100.17039286345562,-197.0357488188558,14.095487766345835,101.59434072569844,131.8046685068339,67.33489456969113,-513.8070789843225,-27.05080386614201,-17.001643823928557,-61.607430063498164,17.345291546394897,-113.41655772388236,80.37717630450992,-231.23782853307404,-17.04454873634178,43.047922304135994,-59.56822242357739,60.52789101406074,226.9257294777688,38.52377700336631,-9.567483774018758,-125.81534851348499,5.95660872378019,-52.20874262612232,98.79629876368683,105.34271478750972,148.01404141959716,102.43124890572462,177.28619563166438,-49.99364749119632,-53.09693344310886,20.809107985518246,63.62300088098655,76.77063025446535,50.986997752800384,4.036056818416167,150.38582128872062,-55.544173996122076,35.163582351592865,213.10923194488555,-48.89161508022354,-49.693628492489964,-75.77082717579512,95.25399962732446,198.61998408630868,53.316224490387825,59.02317805843821,31.02083163977304,11.382720180222853,45.086024026597386,100.37927668468619,51.89202651752487,-120.46154191411627,230.789229416713,-20.77155941271157,-74.9585020381872,-19.94915599560275,102.23221047736179,68.4155972540959,-23.862167738459064,132.58213911991407,-33.252949283358795,-90.24138133518362,-19.903154253679133,46.380222329754126,-1.7274291725573783,20.812245502464194,4.292687840832195,48.96339582566595,17.422358803854937,25.91384061443178,112.2881714096838,80.1106106802451,56.355752600264005,-41.05134480416038,-1.3329053653439107,155.5305306096901,-3.6243261196554415,33.90470212117149,-38.68837849990485,150.71070200839426,-35.25116748435384,95.81060235758063,127.7723223142349,35.25155278187726,51.7206155074396,-47.429086581476774,84.20999835892479,32.97871938776157,68.06752105667046,167.53788363091252,148.9213800826265,2.423305779688536,-14.810537854686483,-29.305826300384886,-135.3769603118033,37.430199204125294,-101.23738284903085,-76.56636703134805,175.5183117338384,84.71893555143232,-110.94698656919344,87.64277018620554,121.01477186093635,-53.9537164696724,-69.97233279661346,163.7475300996071,-20.684434315280022,-82.38369004322065,142.98262884439777,-12.546987808994455,46.46896046139098,-84.34157143754048,4.831882180414001,-58.879453473471216,-65.45438579593264,235.55594657839686,-53.47795025787194,-276.68764817038624,-14&4679732326,-77.60757032827955,87.55355877317746,12.896511504137857,-25.1270723292827,-183.00128536601002,9.294624995290043,-68.98527891194448,106.51297587773016,-119.25270007875329,105.100593583624,-164.49083333492865,-16.2362114170568,-49.51702879317765,46.19487299014584,333.7198549173808,-23.51846146583055,-10.470643623737871,-41.71057748405605,-107.91869983574384,-43.45701512419712,8.548208071441282,-13.490932153681719,-84.19886216868898,116.93222977538578,277.5429676512129,48.79700894170176,75.53233712476481,325.9185681989538,105.71228801564993,-1.074721531110907,14.9931736384371,91.42958321493397,-142.26658083894392,100.25525389750366,19.804396505779362,-38.78391099259555,-107.15879869834951,31.59758424854343,-165.6166343280257,-13.234957416120762,280.36537913974166,-8.835203048193206,45.653565291112024,-87.24186849376454,-7.653614158195171,-48.966005179306464,-418.0328351224118,35.7945516965691,118.99578267900633,-347.2772339963836,-47.87391827247008,22.923937578496275,36.07606652235064,42.77573730571591,-44.60685829340153,-6&12297767341515,-32.59868734175051,-0.7724225621686737,-28.52148827465037,-131.59916565959276,88.28486900531665,-36.86307452668817,-27.159880341402992,87.81799066710364,39.200190476002035,-43.83287788368859,-34.25764106618024,65.34608376317026,31.40862418952724,117.53080453100551,8&3303227288748,-8.71420955395388,37.37563539873339,-6.592737560253739,24.161239245552313,31.604760285398363,-112.52615671631808,38.26346473657056,15.161975752780336,-22.961502589682055,136.67547021252162,-129.01714962447653,65.36711267425399,140.54284558616754,33.732583326357904,-301.528436831324,37.38384084547344,-174.87131244651013,128.30692599417213,-100.71392667347992,-36.499278465938936,111.98573358389882,40.46466963775535,-75.8324279653857,8.82282988347097,-0.36005355359817504,-14.647728604085739,-117.65365246205916,-4.9311078855141135,-5.041225971996771,-186.78850904013262,-39.09841097269756,13.136161503069019,-154.51965903488144,-0.9893051933827637,163.53587986718622,81.72592070667405,37.71803448887767,123.0371640403475,-100.33776167338652,8.57258882106492,2.8632179296271105,6.400058399837853,190.113876352692,-17.341739695396253,-7.766403068045649,30.267152360283305,-113.18940716474809,21.139686169747463,-82.03466379004401,-217.4247694971742,-44.456793985951045,-89.26967874462017,44.7265351193315,-16.1137241282839,150.34574031975254,-82.61642994594837,-66.83189739995623,23.133602566767358,90.79702102377723,-10.158876326896898,20.877397040029805,-145.74931965652752,25.6023103597612,49.212408810992436,119.65304069608369,76.01476553731476,-43.71749252430871,-81.20877196535162,-3.3791370365022884,27.806309720160897,109.43916818803332,-34.32161601371405,9.72619206363799,-75.61575208086975,23.60588585208966,18.650583570542818,-34.332486693963794,-46.46298869627075,-96.70621676432653,-&9293331296918325,18.685979694885724,118.7358828410571,-49.305175857455076,-65.88575960432966,-137.56784463260678,80.68141003631062,-56.541386937987646,8.018232141320393,-210.15397958791772,3&45389699407885,32.39176912789732,13.50865117365133,-10.296402979187501,-16.2173209129085,-338.56563016702023,-84.03428095708442,-116.27008487344101,15.496862152463956,-8.092033607916186,-266.7145863880427,89.00676749507811,-10.850741820313598,64.40974625900888,-20.221769177117135,13.95266070654609,87.84834733708132,128.5449079726132,86.2601629130803,-88.61659504677506,-5.060322845330116,-158.73185781873178,167.6743056415316,25.7999126013251,136.74401498620924,62.49028059553466,1.1062628608272491,138.95369270434347,36.8200674799558,50.37372151750209,2.557085395970503,-109.43628600978174,135.45537655057984,-198.03651903008696,-12.644726091345682,-25.79052188968608,77.00627510400645,-65.56125940557008,90.54188780603722,131.37848984029955,5.87061375241526,-49.9375137281382,-12&7533972253859,33.669855444420335,164.32741124940637,94.84611227475702,74.5655988495248,-9.908472926650632,11.604516437230089,57.43315003785689,11.73000657959296,-141.1732794287521,5.479156339911009,-70.22054441924138,17.71105025461824,-24.89883778021232,-20.544343881275992,164.34212412754113,-49.288841178852664,-18.963802408802906,-104.92989732811282,-53.05066321901078,64.16977649423869,66.42175919062926,-11.121245471626382,12.180619396558145,6.035545038659692,24.588247483184734,-126.48643157375207,-147.85957020436348,21.742141897547697,19.027433795305743,-52.80852355338845,-106.78192588750271,77.94743902181281,5.930565411756516,-178.50040255265654,-10.682843889520852,-44.834841348741804,-12.45214508990699,7.9061274503072125,27.476366004682234,-2.330889011395111,269.1026635552659,53.704453368297216,-34.34159485099907,50.582016816924536,7.18363896583132,-59.70098719374228,-22.65048399877337,-47.452471597560226,50.50664182901812,326.49910356960396,-110.51480365262253,-37.67509157925516,39.854987967162735,-71.46016283247306,-113.49902607483986,24.214107941969697,22.505016479715955,121.50059625324796,-165.47754865856294,-120.90969968122334,&4342222025168533,156.4512237589699,12.501216583397337,257.1361315854363,-98.76072958495669,53.977723681670646,71.91400959100929,53.72177808845414,67.9602875377909,-36.47243200498905,-272.6503809842673,-38.81519664335775,-70.68012075201766,-47.25944794566073,-247.3066161234873,149.29420518748753,-33.73688702071371,-8.831211837716198,-141.24028274434684,141.67035057229802,-8.099187926188693,120.61603503613571,-44.572870136029856,23.16203498566144,12.420797695883978,-133.58547678014347,-125.32552425664232,118.42859759045194,-88.90682311656944,27.411187002196616,-19.10946559664636,17.99280482691793,6.004108742043073,-93.53421306753148,-67.13211370661652,-172.51227021889292,8.01947177593175,63.63206940248145,-32.09512711861868,-129.04176392345872,80.33863452461611,47.35640878632775,-129.32096057929053,-175.1542562255524,65.34783428983275,152.85875995668368,-43.89973840676486,14.36862490498134,39.570795921356506,42.551149238350746,-14.822871138248777,-246.9537638012945,32.22559798488677,-34.15764074360014,-37.54756381374993,-174.0093673675584,-180.17540099766975,44.96614128464124,347.4846521143604,-15.425766021405575,-96.53539338676157,105.53087339454906,149.46711721904893,-12.497814931632464,27.32902046317199,-8.995004470308126,-8&2880502259077,-83.99967750348185,8.587357803003185,413.96054041172874,408.4051200522551,183.66176027648618,-6.0610265937827,-73.26245230634213,-50.77999050695423,-41.00854405398965,20.19946448469875,-27.060432792127703,-6.380732267714101,-7.1266755021785455,34.38083884648557,66.21663244398187,132.36221956937473,-49.016880553445134,-3.015261659868993,13.473453992597676,-207.11640990463025,64.76346690593017,83.29859986953758,77.57651639428818,39.686521992362984,-82.4554146440162,-49.48916538280104,-79.9729727558201,-248.2930512589743,-25.65586636779877,-54.15270893055623,-35.81420941879378,44.35674550709457,40.522543911464275,15.157871093664605,99.82364920684678,-99.15842879360736,-33.818556167500965,59.53241733806501,-0.5718353596910308,-11.463378582463578,63.31252887512184,44.31748076618206,-8.199554996799831,37.67253144907393,-116.60134137787341,118.43036337409214,58.88078410616375,56.09523305298102,-38.899424674734064,-45.23493507656562,-92.41830930883143,232.62265360486333,120.2078253490557,63.8571119841674,16.88700614179788,128.80044287221975,-83.56581175512643,49.24111497298703,3.3166391101499904,51.85769429391226,149.20931523462534*-6.357581801579092,126.41695221446648,-220.2033697131315,26.58469476067794,119.5596075219445,161.9751981694084,64.38497691567439,-515.1319235140912,-23.363527856284225,-17.216769110436694,-62.13098372564866,18.322104078507724,-118.23372314654223,88.85808421850398,-197.26377291984335,-24.55616895061572,33.84323563064928,-62.372897287497636,59.59778838946289,245.7445401712496,33.14284608628329,-10.611414762009659,-141.32664489306245,-16.771238714794688,-82.2363713249897,86.53526613406788,109.8175224126532,109.97350193499797,97.72334268346188,235.28803159124186,-28.56796409844123,-15.388591181405511,16.273706413791984,64.50916755694851,65.96996355037238,37.739336151856435,11.165615896307852,178.93629843301025,-45.82900463608412,42.97183399408895,201.88965918980588,-48.4646275154057,-37.15927019186439,-76.89712349296697,103.61803970895633,176.75828041373788,66.71832092465291,96.17789394120808,27.169459328833497,15.324271923947572,51.25467848177147,91.24455196668104,42.65465553383955,-108.8356991848505,197.43142414288778,-17.070710537375703,-81.91056263902077,-22.8661632347706,74.34578526191696,47.35452675989152,-18.77476175644009,148.00108368932095,-29.998448799509713,-83.52479176883428,-18.53817656543252,38.375420023396515,2.6956793774619072,2.4733590042183713,4.869729995399318,64.77793646024197,6.403033217515625,32.99882029877439,118.90201448732618,60.89745398594076,41.53613225647656,-39.60375297973571,-0.9144177299491708,172.36172949589613,-24.14598207209172,57.83287061053275,-47.72089497565169,135.4860645384444,-34.14509052080751,98.49132676995974,133.9009187145725,42.61886034538407,57.69742903138378,-32.92565027589162,82.79204886546759,13.256122758113747,71.661444318516,167.51424317060375,157.49609575907664,2.8604615636218855,-14.611156544229198,-33.09079210836539,-173.51067684600463,38.41217255979497,-62.52035462020514,-63.73013047691159,173.31126833319118,106.70545229175815,-113.89076117748579,98.26385342572561,121.41041378756998,-55.33086388388668,-62.447372241970484,151.06753466480725,-21.32611850621737,-91.39727363025018,248.53664226135436,-17.881505901891213,43.670605003984925,-78.12780290838283,-18.753679138155853,-62.748260486678134,-140.30428884470285,315.0905752120307,-57.68443493854398,-275.10037887234637,-138.60137887248572,-66.30522845847193,81.06349573817933,13.87955440395198,-18.965881117000833,-170.67013741661702,11.980272612186988,-67.64854053025569,96.25088031081235,-92.76817557768746,104.19641098725137,-146.36527301446887,-22.53865778427013,-52.86886234209374,51.90015301337202,552.9554408224813,-60.14541151897691,-18.051029420778434,-21.710194807953698,-146.23506419424822,-57.75376949967188,-6.320764651369648,-11.318981644599656,-82.95757570402928,111.16837595383093,224.6786718095918,50.97650820524385,94.54943939874413,291.9263609618074,103.16313850448071,-3.1361609885458157,3.9901434991915385,90.54630511477745,-139.13180889191108,118.59814634108923,8.344984657042417,-27.657783303366504,-91.65624694730806,31.097849718533293,-158.3296180345113,-14.953252967862543,379.1126998581286,-10.894534747445642,44.65351962926032,-141.17820205713582,-2.6475604131789843,-47.66180213275221,-478.6408907236316,37.174577650179515,156.2711437423822,-346.54297824619215,-57.77712720194647,4.919440561879237,47.352669842734926,49.0424054486607,-54.41433912918582,-57.90440319833989,-35.347871124400434,9.701778358893574,-29.23551624202076,-217.9678018217454,56.41561680978827,-32.17769303933595,-21.987900676721793,55.37214089014041,43.5854731025108,-39.23331632448604,-45.48137478397855,36.519290020950905,40.161812858763064,130.2185583409541,85.78690041208397,-12.693588630054983,38.66273530446572,-4.156056182106721,28.962244858670367,15.771686531398222,-134.87904469351622,29.54790911197366,38.37452049685168,-19.915734773295924,117.38776183892881,-129.0743572185057,82.47678126687973,148.41764477168857,28.885125199262344,-632.5396797660735,41.22440297855584,-182.44800835950485,156.03739176224343,-104.62291838784478,-8.816347073726954,109.03405041808381,32.5925099812991,-73.99900774046421,-18.265439603690588,-8.582380680899195,-14.701927148766588,-106.65507592299117,-6.420069744056409,-10.863451994150518,-154.55781054090573,-41.38758083717926,10.768664162663212,-129.89845124232997,9.862693328801491,139.2527449706539,85.97449372352169,44.45366357429316,98.16049224008364,-96.80501357421593,12.00662197051704,-8.121510586979936,10.196398077050421,167.3138821316793,-21.245579320749926,2.9274658548876564,26.857706840494572,-105.72045160025581,17.19110551979522,-86.3886173608412,-188.05389186871105,-39.79757702824988,-108.23507453825529,74.26833545675895,-21.202192720256726,151.74611915734107,-67.48299539667788,-83.13567208330696,29.433451512619076,75.95800166313396,-8.277013103889962,15.421338320788237,-222.64624099594246,17.424935654736416,42.778544586446316,100.31674939145786,69.55074864091524,-49.75088708024082,-97.13589244865952,-12.78932367072273,26.97195486009466,144.13309756306606,-26.414782389892775,5.580248288119358,-63.96612013361913,21.038868968666883,32.32036045021841,-61.756300762787056,-47.02030082295008,-117.6448902241166,-1.070849649892244,8.380546584383072,116.14592747531047,-42.61885790421657,-65.89781618798321,-194.54030898472652,73.91721125232584,-27.18421898864204,-12.248045266407635,-223.32313892687415,30.378112423756637,26.111999418318522,6.515428844259745,12.418439285992122,-6.2018702651208795,-264.7487881687695,-70.22576424163339,-82.89857472155443,18.739301034363706,6.391635436650737,-235.02176569631285,95.48112803450469,-6.454467426638826,63.96058180440299,-25.34778010184123,18.002658750547702,95.7341815945666,128.6214498398017,30.43461897559257,-87.46240768163781,&22585281986202358,-117.38976965470879,188.21549604976346,25.999766798329556,142.77441701147353,57.86111496558386,3.5574237285240753,110.88315084329523,35.19163646366566,61.28859507279921,1.7207059326833916,-157.09979224906735,156.17916175217135,-212.00620140075873,-28.54228837341719,-32.17800584321025,34.758314816869756,-69.91686049556547,76.51713884100859,106.31459584776287,15.327314258943119,-59.02185417214122,-132.1704456443257,34.363528631020515,154.3067438649281,98.01320425021358,63.75640484126071,-24.516116582702413,14.953532088592766,36.12986540747663,-4.642766538150496,-117.83875828102813,12.265742418456306,-68.95588218583349,20.518011549700052,-36.49008301004553,-17.757175580388378,148.981530750003,-35.91256811837512,-9.84317521055505,-87.57441249247468,-31.73084808927898,52.39890575209331,58.645625284593144,-11.991113761619939,8.430518636170783,-2.041105619422234,21.939354915487648,-82.36345974949172,-138.69241835291368,37.41116593477599,16.953875022039536,-48.963784487916726,-147.40539829523442,71.76588519011703,-2.207995875506705,-311.25634480566066,-12.06936014108275,-37.97117838772382,-16.618434741852788,12.821207864944958,43.43461555956283,1&98298965943634,226.07046969208938,63.91614684971665,-42.207971187114566,47.29010949828803,7.931995439362986,-64.0040040413744,-34.20722509050957,-49.656484674559884,39.365292909567806,488.1348047743275,-129.72806795513534,-7.7229713311736825,41.22201849570632,-78.39892345818997,-107.80607345177182,24.79724017898008,40.882625786891964,139.46168554216462,-295.8734043930303,-160.90313385182452,5.746572614022384,251.7622356758709,3.0329077499872583,221.57314751488727,-106.59251904859926,99.60552217960027,92.9440260616741,71.59499237452225,113.13677262806978,-16.510840504857395,-238.82279679178282,-32.88196826801222,-79.82850230634075,-75.55262359972245,-612.2573873947812,203.59684847837102,-54.89722771500495,-10.56903655498477,-138.80576876010497,117.2912940133075,17.295654283825407,110.73911967708261,-67.25309530144348,25.218297975706992,12.414393985742135,-141.62592703905023,-170.93929925836292,103.7977399938631,-95.8229600376725,21.15865270653512,-21.109684304321785,24.556819136121252,-3.9472300086044094,-82.18037770634507,-67.6551630719078,-12&9934578765665,0.21560140014625748,60.50458417764701,-29.72997479141793,-128.15427341764246,73.9416439533786,38.733561023700545,-116.48162120120672,-176.2212505496083,71.07033283405966,136.38343079844236,-46.97554105949878,4.369252667688819,46.82376098722771,50.23110158397852,-8.32303166510902,-235.97939893225097,35.502781695803776,-23.52248653283858,-30.88521325221223,-171.67380223057305,-179.51188291963305,43.300026127195814,308.90229887812853,-23.23804804621929,-88.74645355445557,98.46146340169699,162.06094632080183,-26.49179760799648,21.5397816214061,-6.931092115769264,-66.85521578503943,-81.39339909860077,3.6079961490545167,344.285142466586,803.5011187129148,195.09542391430537,-16.014236284808515,-37.42650734389651,-53.06454781569902,-31.376991193713046,13.864357186792546,-27.629705869387486,-10.371289227975725,36.158646698381304,4&67715149381996,72.3742065595542,133.84881167133574,-48.71299969327823,-7.139196734798144,22.24275618852577,-201.01903877979953,55.21014945484222,61.61809561345568,66.34951341641322,17.72181839136891,-91.59442596537181,-57.03494617328341,-77.13292490856821,-220.55921923538014,-35.43500621013734,-39.50567140856995,-36.71089645296507,35.78079645940554,40.21050048684167,21.9477807562304,113.10612106511513,-83.69038634904561,-31.937460618862808,72.01081694875751,8.661116400684627,6.748242524222299,62.34259970303604,52.362727143016315,-10.47505912620382,38.36998596626748,-105.50595540774735,111.53080253010982,52.636918735051346,41.67597431314613,-41.787988552083576,2.7624658748897057,-99.83197822483862,279.2698583222598,101.64369759109196,63.170549041649586,23.05161044961801,177.69547062060371,-87.81612420109683,56.12208158311613,11.817447311699233,47.984784149857944,138.93458357127176*-11.92756103670178,119.67415776280815,-240.88132517735062,29.9824645855382,129.8536451695213,160.46656205684613,64.10823911767189,-514.4001411861377,-5.4322611450269775,-3.3551791739485157,-57.656792820505,47.888520681995445,-117.76739410342796,105.21738435642385,-211.17689536422586,-15.799767731516681,35.315562019519106,-54.32996121806782,61.010292445354395,181.70020821770748,34.69214334355331,-16.857977543811355,-157.45081703463433,3.8639100948152794,-61.21060744201795,93.07974882687049,104.25653871533889,168.39312404981368,80.7380030710888,231.74824118321592,-38.68848616711286,-22.014218979963854,11.950086875390399,60.41956226484596,67.06520384221112,45.072315597763364,-9.260511364504811,215.13960213215756,-86.63636296896821,53.74160099031458,238.43235282024256,-60.94119586182004,-46.91666200371212,-52.33010622098986,105.82923368124014,191.670213792385,94.97415230253485,124.57625045722008,25.710756570022742,13.905752305706606,47.69135819408518,97.71212714680009,42.73188704946914,-11&5653810417836,208.35081601166823,-14.82312414813219,-104.16971303029612,-22.173504113131763,75.67510783854487,63.56566768684196,-25.929283531156855,146.37989558736442,-24.904772935800917,-75.22271621818585,-15.89700419483861,34.85810649478952,11.755919178105021,-0.9013026096323358,9.781776489349165,66.53667673604713,24.87440132444776,46.80066535122413,108.98433253822651,65.01223680555388,60.52688162531731,-45.21257025113042,4.136188865774232,170.80933992368713,-44.867029930440864,54.75973200462637,-38.60849813026832,141.86646643862815,-41.54108669001172,112.40998693436465,135.94918224114141,34.09876569901756,53.80215124758146,-34.92133780719676,78.99126435920839,26.15288030414831,59.43539183280531,167.54129984040316,145.03850997942132,-1.3365921517730737,-10.43972068201011,-28.935286003467326,-185.28671877710408,24.50629999682087,-73.53711067067172,-66.14049371345283,170.1666543520911,128.8828892519313,-110.60258725350113,160.3183820404785,148.68247009154553,-51.28729467685924,-73.07817739368431,145.1733280890324,-16.179608894343644,-85.77875763922951,291.25790963628265,-17.271806657804994,51.358176135657686,-70.78989931027827,-4.895636356109758,-60.16623443242135,-96.97774144953934,270.21811802945143,-59.58442953392635,-268.14144108401575,-115.99278106821603,-92.28846071032014,76.43369319065923,9.157262856151497,-15.763918678065945,-165.74814585792424,11.773604159692262,-75.23241333337802,79.89740909134687,-100.82604789373373,105.01894478153817,-119.36795930826821,-19.19600922215625,-59.888984139018696,40.570439203521765,606.3350893667326,-61.82242002533054,-22.543678295768416,-32.44593996413775,-140.58394710493255,-48.32229574604869,6.524122032787951,-14.26264328780889,-87.37296832555376,113.04066816895698,211.9213498653217,51.25650568716795,83.92991390945919,345.5866272486154,102.47346640113791,4.646702659499541,12.363697452833858,80.37034207303019,-148.66747447994953,106.26235432895437,36.34578224184154,-32.008611452992646,-74.60331674487837,29.01313495948578,-150.8159750614051,-21.279802409962393,369.5152401025974,-12.387517996851942,40.499515950921754,-152.0160893826953,-2.0807030046890422,-35.227126604909024,-472.20343178108646,61.506223031348036,148.82324462671355,-334.7652817892732,-51.27791448233786,8.460681311263109,32.15860487583156,43.788703806225755,-42.39708080075969,-66.52539969306329,-35.23221848017584,12.086813075793778,-25.57993527456182,-261.16060159691557,68.78410224693287,-34.59304007367893,-26.37459416889702,61.20052490017637,61.23239691040938,-41.43928746726416,-38.81586017045137,51.20176757965446,31.76360965418031,118.99975753524751,